{"sizes": [784, 128, 64, 32, 10, 10],"weights": [[[0.12726959586143494, 0.12589994072914124, 0.14446787536144257, 0.012187270447611809, 0.08762456476688385, -0.10213302075862885, -0.09401431679725647, -0.06949986517429352, 0.04927021637558937, 0.1402260661125183, 0.1347079575061798, 0.051634758710861206, -0.16075275838375092, -0.2760412096977234, -0.2278430312871933, -0.4356900453567505, -0.05538066476583481, -0.11405027657747269, -0.06068410724401474, 0.29627227783203125, 0.3831360936164856, 0.4371716380119324, 0.2555113434791565, 0.12370169907808304, -0.042757339775562286, -0.2627655863761902, -0.1731918454170227, -0.15287671983242035, 0.034958865493535995, 0.1212405115365982, 0.1016220897436142, -0.012903896160423756, -0.00427183648571372, -0.11991105228662491, -0.11612483114004135, -0.024130268022418022, 0.09840814769268036, 0.19614432752132416, 0.08485794812440872, -0.09612758457660675, 0.05108911544084549, -0.0904896929860115, -0.1017899289727211, -0.22009100019931793, -0.01260459329932928, 0.15016749501228333, 0.11346273124217987, 0.31316304206848145, 0.4895976185798645, 0.3923271596431732, 0.1551681011915207, 0.12889020144939423, -0.017058974131941795, -0.16674695909023285, -0.06525935977697372, -0.03917798772454262, 0.027913043275475502, 0.16337399184703827, 0.08311479538679123, 0.11356036365032196, 0.05329910293221474, -0.019928080961108208, 0.033770643174648285, -0.041474584490060806, 0.16189201176166534, 0.19843143224716187, 0.19468584656715393, -0.06318008154630661, 0.1551165133714676, -0.052082985639572144, -0.07478290051221848, -0.03214295580983162, 0.1558234840631485, 0.21850363910198212, 0.3330094814300537, 0.4131019115447998, 0.3252536356449127, 0.2567433714866638, 0.3013864755630493, 0.03513491526246071, 0.028102997690439224, -0.06556454300880432, -0.014802157878875732, -0.08761673420667648, 0.13961973786354065, 0.03180715814232826, 0.05387020483613014, 0.07621819525957108, -0.06173389405012131, -0.0678047239780426, 0.12240973114967346, 0.0023467421997338533, 0.14238831400871277, 0.07281576842069626, 0.06094186753034592, 0.07285257428884506, 0.177424818277359, 0.2308081090450287, 0.033853597939014435, -0.14861927926540375, 0.25133031606674194, 0.2694718837738037, 0.26405274868011475, 0.20850497484207153, 0.3527301251888275, 0.24281790852546692, 0.25598904490470886, 0.14726665616035461, -0.1481710523366928, -0.10009780526161194, 0.007617624010890722, -0.12076374143362045, 0.004919149447232485, 0.017684290185570717, -0.03654911741614342, 0.13697798550128937, -0.011272519826889038, -0.07177216559648514, -0.024851888418197632, -0.07691219449043274, 0.14995113015174866, 0.33301934599876404, 0.19176071882247925, 0.27471789717674255, 0.2822067141532898, 0.12411832064390182, 0.21590326726436615, 0.2303144335746765, 0.1809857040643692, 0.033601146191358566, -0.25441238284111023, -0.21027228236198425, 0.1587267965078354, 0.010047106072306633, 0.22217559814453125, 0.03011288307607174, -0.0958116203546524, -0.12314750254154205, 0.032751794904470444, -0.045339055359363556, 0.047456927597522736, 0.03931274637579918, -0.10696588456630707, 0.02674414962530136, -0.04858239367604256, -0.031791768968105316, 0.010006469674408436, -0.03378701210021973, 0.228681743144989, 0.45950713753700256, 0.29210588335990906, 0.4709228277206421, 0.12387565523386002, 0.1487886905670166, 0.009694901295006275, 0.1706608533859253, -0.21933923661708832, -0.3862498998641968, -0.6396028995513916, -0.5192993879318237, -0.15650880336761475, -0.0011216324055567384, -0.12057816237211227, -0.13239876925945282, -0.04941974952816963, -0.12902487814426422, 0.16586068272590637, -0.0011555543169379234, 0.023019665852189064, 0.08500311523675919, -0.13176216185092926, -0.05366829037666321, 0.012695947661995888, -0.019833019003272057, 0.19272184371948242, 0.10971708595752716, 0.29778218269348145, 0.4558026194572449, 0.2936367690563202, 0.3567195534706116, 0.12072698771953583, 0.09726910293102264, -0.27493351697921753, -0.21798807382583618, -0.46788761019706726, -0.46803799271583557, -0.5068740844726562, -0.5363052487373352, -0.49178817868232727, -0.0755000114440918, -0.3622312843799591, -0.4542626142501831, 0.0004758489376399666, 0.17040473222732544, 0.2025349736213684, 0.08736307173967361, -0.10403140634298325, 0.07874500751495361, -0.13359908759593964, 0.03247779235243797, 0.17265485227108002, 0.08247137069702148, 0.39358803629875183, 0.021642791107296944, 0.1401250660419464, 0.2727232873439789, 0.34347841143608093, 0.001112866448238492, -0.18886543810367584, -0.13843199610710144, -0.28423795104026794, 0.06553822010755539, -0.11689703166484833, -0.022290673106908798, -0.12672291696071625, -0.37143102288246155, -0.3070271909236908, -0.09029112756252289, -0.2746962308883667, -0.43289580941200256, -0.055644966661930084, 0.2977783679962158, 0.0005005987477488816, 0.10612743347883224, -0.07943867892026901, -0.048679135739803314, -0.022589832544326782, -0.09580426663160324, 0.10046356916427612, 0.040050603449344635, 0.35116416215896606, 0.10084296762943268, 0.09882868826389313, 0.034263260662555695, 0.1915624737739563, -0.08069179207086563, -0.17195512354373932, -0.3264045715332031, -0.15574342012405396, 0.1832398772239685, -0.14411048591136932, -0.24611927568912506, -0.05671095848083496, -0.37230247259140015, -0.4607189893722534, -0.25350064039230347, -0.2652626931667328, -0.16138337552547455, -0.1760830134153366, 0.027259586378932, 0.01508414652198553, 0.05672196298837662, -0.03757868707180023, -0.017268579453229904, -0.08490268886089325, -0.035423487424850464, 0.010950954630970955, 0.02760946750640869, 0.20717348158359528, 0.20419995486736298, 0.1602456122636795, -0.11039585620164871, -0.024985359981656075, -0.10140335559844971, -0.2198958843946457, -0.4985828995704651, -0.42917123436927795, -0.44771796464920044, 0.020538458600640297, 0.033985480666160583, -0.08475182205438614, -0.22424891591072083, -0.3255156874656677, -0.29991796612739563, -0.17655961215496063, -0.10643461346626282, -0.08314018696546555, -0.15433336794376373, -0.06975264847278595, 0.1161421611905098, -0.1314009577035904, -0.06278911978006363, 0.0005647523212246597, 0.003324108198285103, 0.12645398080348969, 0.05612599104642868, 0.021375341340899467, 0.14525668323040009, 0.2527979910373688, -0.001648269360885024, -0.16472545266151428, -0.0673561692237854, -0.2454112023115158, -0.1369057297706604, -0.06862930953502655, -0.2012624442577362, 0.23674216866493225, -0.11230497062206268, -0.1528901755809784, -0.34030723571777344, -0.280978798866272, -0.5824834108352661, -0.1677362024784088, -0.2664879560470581, -0.028630373999476433, -0.06663327664136887, -0.01873059757053852, -0.016086282208561897, -0.14754989743232727, -0.13826003670692444, -0.06680264323949814, 0.13811154663562775, 0.10528562217950821, 0.08771127462387085, 0.0893484503030777, -0.004615351092070341, 0.14513364434242249, 0.0067872460931539536, 0.0014535676455125213, 0.1805475950241089, -0.1635955572128296, 0.10964058339595795, 0.2582535147666931, 0.47666507959365845, 0.0016582229873165488, -0.008634818717837334, 0.05431656539440155, -0.01993527263402939, 0.04494183510541916, -0.6642327904701233, -0.13360032439231873, -0.36844807863235474, 0.017400523647665977, 0.09391015768051147, -0.02067161723971367, 0.09564726799726486, -0.017066223546862602, -0.016219500452280045, 0.005805776454508305, 0.11169423162937164, 0.28989461064338684, 0.2685784697532654, 0.24614645540714264, 0.053148481994867325, 0.14988143742084503, -0.032661911100149155, -0.3536374866962433, -0.07425952702760696, -0.18437406420707703, -0.23556876182556152, 0.1782747358083725, 0.45045045018196106, -0.024646366015076637, 1.1180431101820432e-05, 0.0028170354198664427, 0.0425901934504509, -0.01756427064538002, -0.47708311676979065, 0.035569000989198685, -0.15225353837013245, -0.11936350166797638, -0.08927468210458755, -0.05831455811858177, 0.010863492265343666, 0.022304315119981766, 0.11338523775339127, 0.1086375042796135, 0.18674765527248383, 0.2199241816997528, 0.3271092176437378, 0.23105980455875397, 0.2538248300552368, -0.014732268638908863, -0.29952913522720337, -0.3848862648010254, -0.28257039189338684, -0.29850220680236816, -0.4363029897212982, -0.4741687774658203, 0.30119991302490234, 0.018916083499789238, -0.12909111380577087, 0.21057529747486115, -0.16516636312007904, -0.2120632529258728, -0.09459477663040161, -0.10861184448003769, -0.2838512361049652, -0.28847482800483704, -0.10424795001745224, -0.1626395285129547, -0.12117024511098862, 0.15016715228557587, 0.057083792984485626, 0.17280736565589905, 0.05796798691153526, 0.14445194602012634, 0.2994648814201355, 0.24159163236618042, 0.13059861958026886, -0.18834511935710907, -0.22957277297973633, -0.18730472028255463, -0.18810047209262848, -0.32771894335746765, -0.5094413757324219, -0.2689219117164612, 0.03170962631702423, -0.17311254143714905, 0.003641792107373476, 0.2449617236852646, 0.14621244370937347, 0.02756412886083126, -0.06700493395328522, -0.2083514928817749, -0.026940971612930298, -0.31122025847435, -0.20814131200313568, 0.0005867767613381147, -0.03482545539736748, 0.1516720950603485, 0.12111984193325043, 0.0552939735352993, 0.04127590358257294, 0.06085000932216644, 0.30974775552749634, 0.3547731935977936, 0.20152822136878967, -0.13999907672405243, -0.14794866740703583, 0.04887443035840988, 0.09329582005739212, 0.2597793638706207, 0.08272384852170944, -0.045988451689481735, -0.053819168359041214, 0.1475980281829834, 0.1857384294271469, 0.40627118945121765, 0.07592379301786423, -0.23244310915470123, -0.026028115302324295, -0.30633869767189026, -0.009496405720710754, -0.4800787568092346, -0.10381359606981277, -0.020534832030534744, 8.702925697434694e-05, 0.23587188124656677, 0.16435058414936066, 0.152297705411911, 0.02966458536684513, 0.037121132016181946, 0.04348026588559151, 0.1781749725341797, 0.18471457064151764, -0.07245466858148575, -0.24210792779922485, 0.021858960390090942, 0.1280340701341629, 0.41636401414871216, -0.02366623282432556, -0.03100261278450489, 0.2229388952255249, 0.4003812074661255, 0.1099858358502388, 0.19263172149658203, -0.059539780020713806, -0.33256831765174866, -0.15552639961242676, -0.4466474950313568, -0.31128808856010437, -0.1981704980134964, 0.09777814149856567, -0.04471312090754509, 0.030106764286756516, 0.153753399848938, 0.02656720019876957, 0.20665453374385834, -0.02077730931341648, 0.06378711014986038, 0.06184070557355881, 0.10012399405241013, 0.10944606363773346, 0.02739078924059868, -0.16720367968082428, 0.0612003430724144, 0.17675165832042694, 0.31290462613105774, 0.3197697401046753, 0.24800948798656464, 0.38932913541793823, 0.3526560366153717, 0.2359190732240677, 0.08311176300048828, -0.2053118199110031, -0.11407030373811722, -0.2401295304298401, -0.2700890004634857, -0.3669022023677826, -0.026550043374300003, 0.003927717451006174, -0.040314704179763794, -0.09770408272743225, 0.19940456748008728, 0.004726469051092863, 0.1293625831604004, -0.04373021796345711, -0.12458040565252304, 0.0011894145281985402, 0.017894482240080833, -0.10186933726072311, 0.018791669979691505, -0.16089826822280884, 0.0717233270406723, 0.20942607522010803, 0.2677089273929596, 0.45443254709243774, 0.3889528512954712, 0.34235879778862, 0.23479832708835602, 0.08326077461242676, 0.2561224102973938, 0.11732607334852219, -0.031467534601688385, -0.26050233840942383, -0.11628694832324982, -0.24067573249340057, 0.11895386129617691, -0.05722131207585335, -0.03660345822572708, -0.11742047965526581, 0.11928033828735352, -0.04701695963740349, 0.05944209545850754, -0.21019691228866577, -0.2663732171058655, -0.13599777221679688, -0.13632704317569733, -0.0875382274389267, 0.0600888729095459, -0.03421472758054733, 0.040796417742967606, 0.10507079213857651, 0.24993230402469635, 0.30008813738822937, 0.4334455132484436, 0.27004823088645935, 0.12097080796957016, 0.20888842642307281, 0.18603651225566864, 0.21795885264873505, -0.09877432882785797, -0.07248853147029877, -0.3851345181465149, 0.026856178417801857, 0.15671764314174652, 0.008169821463525295, -0.08720333874225616, -0.12375883758068085, 0.003778836689889431, -0.04687080904841423, 0.04355974495410919, -0.19923819601535797, -0.25650447607040405, -0.1596556156873703, -0.1753704845905304, -0.18689194321632385, -0.09819141775369644, -0.077305369079113, -0.17694462835788727, -0.11776511371135712, 0.14059233665466309, 0.21095871925354004, 0.33684518933296204, 0.23930878937244415, 0.1335970163345337, 0.2051432728767395, 0.13930551707744598, 0.21873924136161804, 0.003562363563105464, -0.02094448357820511, -0.3451215326786041, 0.2788707911968231, 0.13265594840049744, -0.09241797775030136, -0.03294721990823746, 0.02231995016336441, -0.05027283355593681, -0.03652118891477585, -0.07783809304237366, -0.2659410536289215, -0.17484982311725616, -0.26447170972824097, -0.3077307641506195, -0.24548490345478058, -0.122451052069664, -0.10695952922105789, -0.2575102746486664, -0.19525593519210815, 0.030772650614380836, 0.040842242538928986, -0.01247420348227024, -0.02271425537765026, 0.09817241132259369, 0.08431089669466019, 0.12928812205791473, 0.08679668605327606, -0.05236860737204552, -0.10874763876199722, 0.04037173464894295, 0.30938175320625305, 0.05152427405118942, -0.023921549320220947, 0.22857923805713654, 0.023173930123448372, -0.08095856755971909, -0.08971773833036423, -0.12100968509912491, -0.21220670640468597, -0.20518991351127625, -0.34402480721473694, -0.43696364760398865, -0.324978768825531, -0.3903873860836029, -0.34903979301452637, -0.5046954154968262, -0.2719939053058624, -0.1953592151403427, -0.12660712003707886, 0.15184833109378815, 0.09170163422822952, -0.02688271924853325, 0.006966816261410713, 0.07203414291143417, -0.29519712924957275, -0.09342214465141296, 0.010766842402517796, 0.38292086124420166, 0.26836147904396057, 0.0759279876947403, 0.007454368285834789, -0.05237480625510216, -0.04704730585217476, -0.057604264467954636, -0.020102882757782936, -0.13036933541297913, -0.19812694191932678, -0.09648405015468597, -0.0024060807190835476, -0.21758295595645905, -0.22149381041526794, -0.392035573720932, -0.46887099742889404, -0.41295719146728516, -0.2753470242023468, -0.21474793553352356, 0.10189151763916016, 0.08971869200468063, -0.11685166507959366, -0.14900091290473938, 0.01651143655180931, 0.021686377003788948, -0.24185974895954132, 0.1387191265821457, 0.21293507516384125, 0.33320140838623047, 0.13089944422245026, -0.031969740986824036, 0.03587111085653305, -0.06488430500030518, -0.08035754412412643, -0.04858917370438576, -0.0004479183699004352, 0.025615692138671875, 0.0035487094428390265, 0.13573136925697327, 0.1336088627576828, 0.015925077721476555, -0.08469510078430176, -0.059193726629018784, -0.23800653219223022, -0.14967015385627747, -0.11057285964488983, -0.11172475665807724, 0.17260678112506866, 0.005803533364087343, -0.22487211227416992, -0.18094637989997864, 0.14337000250816345, -0.24021495878696442, 0.1838638186454773, 0.2849608361721039, 0.17568525671958923, 0.14275653660297394, 0.16591744124889374, 0.18724006414413452, 0.07182260602712631, 0.002775813452899456, -0.16372333467006683, -0.1738709807395935, -0.13428367674350739, 0.023681875318288803, 0.04856107756495476, 0.167215034365654, 0.1899375170469284, 0.06348913162946701, 0.08357751369476318, -0.18043957650661469, -0.11214606463909149, -0.1315498948097229, -0.09377197176218033, -0.17055973410606384, 0.01944429613649845, 0.07324492931365967, -0.3871116042137146, 0.10839156806468964, 0.014956207945942879, -0.08585229516029358, 0.20979230105876923, -0.0057219648733735085, -0.09081026911735535, 0.02736959606409073, 0.12719425559043884, 0.13386167585849762, 0.03506780043244362, -0.039860717952251434, 0.03495047613978386, -0.21926753222942352, -0.14716750383377075, -0.021434476599097252, 0.16722051799297333, 0.17865779995918274, 0.1565319001674652, 0.039165057241916656, 0.12403727322816849, 0.08173314481973648, 0.011302854865789413, -0.00012883194722235203, -0.07198572158813477, -0.10683910548686981, -0.04342202469706535, -0.0631021037697792, -0.17559672892093658, -0.09278130531311035, -0.3327762186527252, -0.13301727175712585, -0.12892374396324158, -0.32123473286628723, -0.11551851779222488, -0.11638157814741135, -0.009637187235057354, 0.025315070524811745, 0.02254965528845787, 0.04037105664610863, -0.006234378553926945, -0.22617676854133606, -0.22900085151195526, 0.04874886944890022, 0.2226647138595581, 0.14092762768268585, 0.08856151252985, -0.07397028058767319, 0.04143042862415314, 0.08746865391731262, 0.09638198465108871, 0.08941148221492767, -0.017464833334088326, -0.07698521018028259, -0.04693588241934776, -0.09449754655361176, -0.22348155081272125, -0.34522750973701477, -0.3925018608570099, -0.2155664712190628, -0.008640106767416, -0.09126781672239304, -0.003339538350701332, 0.08474061638116837, 0.05012247711420059, 0.01475392933934927, 0.11790301650762558, 0.04235541447997093, 0.17129167914390564], [0.19942696392536163, 0.18506766855716705, 0.21537716686725616, 0.039243292063474655, 0.07684803754091263, -0.08374831080436707, -0.12595058977603912, 0.028995590284466743, -0.032432250678539276, 0.08001188188791275, -0.051203176379203796, -0.2298833578824997, -0.33281680941581726, -0.48656541109085083, -0.38844916224479675, -0.27192363142967224, -0.08417236059904099, -0.16192680597305298, -0.27257654070854187, -0.08257324993610382, 0.11128111928701401, 0.02831566520035267, -0.10052221268415451, 0.04873489588499069, 0.11040274053812027, -0.11809825152158737, -0.04414215683937073, 0.030928397551178932, 0.12370358407497406, 0.15984861552715302, 0.12312418967485428, 0.061368390917778015, 0.006803344003856182, -0.016139889135956764, -0.02331840619444847, 0.024236857891082764, 0.03397904336452484, 0.10273148864507675, 0.014884378761053085, -0.14110778272151947, -0.1647331863641739, -0.4339425563812256, -0.4178179204463959, -0.23321792483329773, 0.04415101557970047, -0.054153475910425186, -0.08292827010154724, -0.09638622403144836, 0.10861357301473618, 0.017919182777404785, -0.08229949325323105, -0.004042824264615774, 0.06542273610830307, -0.0883513018488884, 0.08361826837062836, 0.0025824604090303183, 0.16359518468379974, 0.12651944160461426, 0.09968944638967514, -0.03291269764304161, 0.047543592751026154, -0.028178852051496506, 0.023713763803243637, 0.10988026857376099, 0.1966520994901657, 0.14830781519412994, -0.051329080015420914, -0.19073359668254852, -0.0703655555844307, -0.15104451775550842, -0.14501407742500305, -0.1181488037109375, 0.27077555656433105, 0.07035695016384125, 0.07582008838653564, 0.08736195415258408, 0.02730437181890011, 0.11610746383666992, -0.12503774464130402, -0.09138864278793335, 0.03328661993145943, 0.004693336319178343, 0.018793851137161255, 0.0723247155547142, 0.14026328921318054, 0.13825346529483795, 0.008147619664669037, 0.11414053291082382, -0.07783402502536774, -0.09538839757442474, 0.19900138676166534, 0.08533334732055664, 0.12426790595054626, 0.05959605425596237, -0.043929267674684525, -0.20280030369758606, -0.08194072544574738, -0.1112317144870758, -0.08847178518772125, -0.01643216796219349, 0.3074423670768738, 0.29071560502052307, 0.16859440505504608, 0.13143156468868256, 0.028386732563376427, 0.12849409878253937, 0.14819101989269257, -0.02600443921983242, 0.008293313905596733, -0.14569488167762756, -0.05593373253941536, -0.06898962706327438, 0.1288374364376068, 0.1414080262184143, -0.046704068779945374, 0.08656975626945496, -0.07666464895009995, -0.13029015064239502, 0.1793683022260666, 0.02534715086221695, -0.01621420867741108, 0.2865568697452545, 0.07110957056283951, 0.01013450138270855, 0.01580786518752575, -0.1657494604587555, -0.10363510251045227, 0.2059124857187271, 0.46675410866737366, 0.224092036485672, 0.13097761571407318, 0.24325895309448242, 0.26763731241226196, 0.035896964371204376, 0.05133099481463432, -0.09350590407848358, -0.1958988904953003, -0.15182805061340332, -0.0216719638556242, -0.07450443506240845, 0.037111736834049225, 0.1652560979127884, -0.06199675053358078, 0.0732264444231987, -0.0693780854344368, 0.020456599071621895, 0.19987325370311737, -0.024139782413840294, 0.11261396110057831, 0.3112872540950775, 0.15026935935020447, 0.1888224333524704, -0.18017499148845673, -0.17089246213436127, -0.05346154794096947, 0.16549678146839142, 0.2344954013824463, -0.04341455176472664, -0.32252514362335205, -0.007919926196336746, 0.13079755008220673, 0.13770049810409546, -0.267386257648468, -0.255119651556015, -0.23824213445186615, -0.014475204050540924, 0.08306402713060379, 0.03913257271051407, 0.08824509382247925, 0.08678409457206726, 0.0276138037443161, 0.04244695603847504, -0.03079134412109852, -0.03810223937034607, 0.23254448175430298, 0.11745031923055649, 0.14122174680233002, 0.18122319877147675, -0.10997830331325531, 0.10554150491952896, 0.07543399930000305, -0.027830298990011215, -0.08310975134372711, 0.02128458209335804, -0.020704254508018494, -0.10094674676656723, -0.36449724435806274, -0.2797291874885559, 0.001681807916611433, -0.13227756321430206, -0.5167838931083679, -0.6783775687217712, -0.21354222297668457, -0.024907676503062248, 0.11576586216688156, -0.03167550638318062, 0.056666500866413116, 0.0193508118391037, -0.0969013050198555, 0.06835547834634781, 0.07249198108911514, 0.0007981541566550732, 0.26325708627700806, 0.05306402966380119, 0.023618537932634354, 0.14782631397247314, -0.061399344354867935, -0.18391764163970947, 0.05035436153411865, 0.09430232644081116, 0.030282702296972275, 0.4096745252609253, 0.10678983479738235, -0.03349803388118744, -0.1770045906305313, -0.14044243097305298, -0.09812162071466446, -0.24082978069782257, -0.40612590312957764, -0.5986077785491943, -0.46887722611427307, 0.08224544674158096, 0.024348344653844833, 0.08211534470319748, -0.01129524502903223, 0.09021129459142685, -0.06365153193473816, -0.020080335438251495, -0.03632374107837677, 0.05343431606888771, 0.2916530668735504, 0.018451761454343796, -0.15845030546188354, -0.23407487571239471, -0.14029864966869354, -0.13113698363304138, -0.005996043793857098, 0.15388329327106476, 0.055650945752859116, 0.3415203392505646, -0.070207878947258, -0.21352611482143402, -0.2869440019130707, -0.3688884377479553, -0.6142256855964661, -0.45207563042640686, -0.19948454201221466, -0.3617422878742218, -0.6684479117393494, -0.2770655155181885, -0.16817277669906616, -0.004316332284361124, -0.026444878429174423, 0.022264976054430008, -0.015253477729856968, 0.07442644238471985, 0.06115406006574631, -0.08743343502283096, 0.11805542558431625, -0.09134644269943237, 0.03492812439799309, -0.3016962707042694, -0.12193961441516876, -0.19140426814556122, -0.03307676687836647, -0.25900399684906006, -0.33105000853538513, -0.28763604164123535, -0.22599874436855316, -0.31241467595100403, -0.34824490547180176, -0.30239006876945496, -0.604480504989624, -0.5391408801078796, -0.22007444500923157, -0.3232104480266571, -0.563100278377533, -0.6984540224075317, -0.3456733226776123, 0.03539738059043884, 0.04671632871031761, -0.0008751245331950486, 0.026939278468489647, 0.15375688672065735, 0.12449336796998978, 0.04357496276497841, 0.06487102806568146, -0.02179267629981041, 0.050181977450847626, -0.14175038039684296, -0.16795845329761505, -0.31145837903022766, -0.01941358856856823, -0.05372185632586479, -0.14417517185211182, -0.1643058806657791, -0.08411221206188202, -0.23399929702281952, -0.3395861089229584, -0.23316381871700287, -0.2916647791862488, -0.5390685796737671, -0.30333662033081055, -0.21902324259281158, -0.46389761567115784, -0.5245534181594849, -0.32488059997558594, 0.06807394325733185, 0.01226770505309105, -0.03877575695514679, -0.04318665713071823, 0.010626519098877907, 0.14266766607761383, 0.15220379829406738, -0.044444527477025986, -0.11332619190216064, -0.29898738861083984, -0.37694939970970154, -0.2469378113746643, -0.12122636288404465, -0.06331798434257507, -0.06019499525427818, -0.0010326772462576628, 0.07358291745185852, -0.048377662897109985, -0.17376506328582764, 0.03511970862746239, -0.04473861679434776, -0.21969355642795563, -0.7374595999717712, -0.08837549388408661, -0.35855457186698914, -0.25263112783432007, -0.31084099411964417, -0.2544775903224945, 0.07902007550001144, 0.05265041068196297, 0.04987931251525879, -0.007140958681702614, 0.1911381185054779, 0.052834466099739075, 0.1369190216064453, -0.017674414440989494, 0.009929867461323738, -0.3329366147518158, -0.4658101797103882, -0.44803348183631897, -0.19078867137432098, -0.16679783165454865, -0.21503908932209015, -0.3435184955596924, -0.0031301435083150864, -0.4381457567214966, -0.3008696436882019, -0.09908871352672577, -0.15953350067138672, -0.49590200185775757, -0.43687647581100464, 0.2385144978761673, -0.24614204466342926, -0.1982576847076416, -0.18411605060100555, -0.07762149721384048, 0.014589633792638779, 0.12728112936019897, 0.008675510995090008, 0.11480409651994705, 0.07048820704221725, 0.2254556268453598, 0.1598757654428482, 0.07605467736721039, 0.1343136578798294, -0.17926852405071259, -0.35385820269584656, -0.33011940121650696, -0.1301816701889038, -0.35719963908195496, -0.5194769501686096, -0.675083577632904, 0.009167653508484364, -0.24460528790950775, -0.18830139935016632, 0.20388008654117584, -0.1744840145111084, -0.42874568700790405, -0.07511457800865173, 0.06856795400381088, -0.3130604326725006, -0.30504435300827026, -0.3336745500564575, 0.028131531551480293, -0.10443030297756195, 0.14847628772258759, 0.018831687048077583, 0.06178958714008331, -0.03647858649492264, 0.18155795335769653, 0.1826176792383194, 0.019985945895314217, -0.041040919721126556, -0.2281721532344818, -0.15229275822639465, -0.14730903506278992, -0.09163977950811386, -0.14405521750450134, -0.5192822217941284, -0.25590330362319946, -0.1525179147720337, -0.2574043869972229, -0.11407729238271713, 0.09596216678619385, 0.08358873426914215, -0.06703640520572662, -0.10644850879907608, -0.05108413100242615, 0.003489756491035223, -0.332986444234848, -0.17958812415599823, -0.04077373445034027, 0.021807020530104637, 0.10652992874383926, 0.001804377418011427, 0.12832309305667877, -0.07051800936460495, 0.1292150616645813, 0.18192115426063538, 0.17210137844085693, 0.04727962985634804, -0.18914534151554108, -0.06056183576583862, -0.07673536986112595, 0.03728296980261803, 0.31595781445503235, 0.1502329707145691, 0.013197776861488819, -0.2803674638271332, -0.08708874136209488, -0.08436531573534012, 0.04346441105008125, 0.16752345860004425, -0.1297333687543869, -0.18096064031124115, -0.1594497114419937, -0.03935418277978897, -0.2660008370876312, 0.08020047843456268, -0.10011433809995651, -0.07266034185886383, 0.12189461290836334, -0.0116200540214777, 0.0561055950820446, 0.08076273649930954, -0.06120932847261429, 0.01901545561850071, -0.03879917412996292, 0.031869836151599884, -0.09264437854290009, -0.11780330538749695, 0.16629429161548615, 0.2496751844882965, 0.23105181753635406, 0.040273912250995636, 0.01976667158305645, 0.016723018139600754, -0.006540392525494099, -0.15644057095050812, 0.011077985167503357, 0.10543084889650345, -0.18169252574443817, -0.2101253718137741, -0.19554460048675537, -0.2365877777338028, 0.1271553486585617, 0.05742383375763893, 0.03464430570602417, -0.0012860131682828069, 0.014994126744568348, 0.0556715652346611, 0.019005460664629936, -0.007037539966404438, 0.03460925072431564, -0.092503622174263, -0.0780538022518158, -0.033416617661714554, -0.19520418345928192, -0.25175967812538147, 0.17406471073627472, 0.11525698006153107, 0.1189383715391159, 0.1458333432674408, 0.11718825995922089, 0.2313646376132965, -0.09348174184560776, -0.047598276287317276, 0.07812551409006119, -0.005943024531006813, 0.0009942608885467052, 0.07637952268123627, -0.19995342195034027, -0.0887402594089508, 0.10926920920610428, 0.07216811180114746, 0.022718651220202446, -0.06706235557794571, -0.06260386109352112, 0.05522652342915535, 0.006858882028609514, -0.07483554631471634, -0.13041901588439941, -0.1421096920967102, -0.15781360864639282, -0.153034508228302, -0.11786682158708572, -0.13486891984939575, 0.2965775728225708, 0.3762947916984558, 0.08174748718738556, 0.11394600570201874, -0.00261678802780807, -0.02790517546236515, -0.0636848658323288, -0.13040904700756073, 0.11173659563064575, -0.05414694920182228, 0.10098206251859665, 0.2158176749944687, 0.06746552884578705, -0.023459436371922493, 0.13343656063079834, 0.14683127403259277, -0.08708015829324722, -0.11141034215688705, -0.19054345786571503, -0.062308505177497864, -0.10351420938968658, -0.24230684340000153, -0.3406200706958771, -0.1192283108830452, -0.12921956181526184, -0.12829449772834778, 0.11352934688329697, 0.05057128891348839, 0.2885100841522217, 0.38052478432655334, 0.32973137497901917, 0.36744242906570435, 0.14329005777835846, -0.003098995890468359, 0.03692220523953438, 0.03196319565176964, 0.10209572315216064, 0.06371019035577774, 0.08357574790716171, 0.1974136084318161, -0.13986347615718842, 0.13272391259670258, 0.1920473873615265, 0.14030133187770844, 0.06909782439470291, -0.07561233639717102, -0.16699141263961792, -0.2680027186870575, -0.18879346549510956, -0.19331808388233185, -0.24913181364536285, -0.24046723544597626, -0.15023711323738098, -0.042670127004384995, 0.06682796776294708, 0.1561429649591446, 0.09687145054340363, -0.0465821847319603, 0.27125775814056396, 0.363122820854187, 0.23382844030857086, -0.019819095730781555, -0.10249105095863342, 0.011043112725019455, 0.14639966189861298, 0.20918604731559753, 0.36805960536003113, 0.23195381462574005, 0.03519941121339798, 0.3191715180873871, 0.20010870695114136, 0.027988221496343613, 0.05476127564907074, -0.09475883841514587, -0.16899661719799042, -0.13948258757591248, -0.24639992415905, -0.20971263945102692, -0.1859516203403473, -0.08659564703702927, -0.11642877757549286, -0.05980603024363518, 0.14346690475940704, 0.2013481706380844, 0.08238813281059265, -0.02861543372273445, 0.04359868913888931, 0.17558255791664124, 0.12350836396217346, 0.045720964670181274, 0.048836320638656616, 0.09931858628988266, 0.09085413813591003, 0.3400077223777771, 0.40727272629737854, 0.165570929646492, 0.13693001866340637, 0.4472508430480957, 0.1566224843263626, 0.15173186361789703, 0.06517067551612854, -0.015042725019156933, -0.20547138154506683, -0.2021891176700592, -0.08792948722839355, -0.17653749883174896, -0.09902293235063553, -0.05331894010305405, -0.1207217276096344, 0.030078472569584846, 0.1457042098045349, 0.07444894313812256, -0.12283948808908463, -0.00504994485527277, 0.20736758410930634, 0.24696481227874756, 0.388954758644104, 0.2912505269050598, 0.28455325961112976, 0.12642742693424225, 0.3267543613910675, 0.22254014015197754, 0.16383780539035797, 0.16920824348926544, 0.48517343401908875, 0.2459927350282669, 0.09650223702192307, -0.024357443675398827, -0.020536672323942184, -0.054631464183330536, -0.16974997520446777, 0.0029609480407088995, -0.051585130393505096, -0.1557849496603012, -0.13413171470165253, 0.1590956747531891, -0.0030256612226366997, 0.12404351681470871, 0.004347977694123983, 0.0360759012401104, 0.13739901781082153, 0.17794163525104523, 0.14955174922943115, 0.5333372354507446, 0.6178252696990967, 0.2944558262825012, 0.15423215925693512, 0.4292684495449066, 0.353378564119339, 0.09637343883514404, 0.2449854612350464, 0.3441757559776306, 0.2028563767671585, 0.09327032417058945, -0.0438208132982254, -0.015343411825597286, -0.013135198503732681, -0.19727733731269836, -0.160554438829422, 0.0047194259241223335, -0.11628270894289017, 0.004099367652088404, 0.01708928681910038, 0.090111143887043, 0.06976746022701263, 0.09120497852563858, 0.14503590762615204, 0.09962435811758041, 0.18164505064487457, 0.3000175952911377, 0.2848786413669586, 0.5062605142593384, 0.36848506331443787, 0.04539870470762253, 0.12173675745725632, 0.4502447545528412, 0.2016209065914154, 0.26584428548812866, 0.28897833824157715, 0.1476007103919983, 0.028083613142371178, 0.14878827333450317, 0.05811071768403053, 0.10518469661474228, -0.14513857662677765, -0.23736003041267395, -0.28127673268318176, -0.193461611866951, -0.07942714542150497, 0.020289065316319466, 0.22483879327774048, 0.20600713789463043, -0.04330798611044884, 0.11626051366329193, 0.07082194834947586, 0.24747353792190552, 0.2482423037290573, 0.19802281260490417, 0.11692441254854202, 0.3460565209388733, 0.24540643393993378, -0.024694371968507767, 0.17824284732341766, 0.2869233191013336, 0.17854231595993042, 0.1861070692539215, 0.16009145975112915, 0.011814561672508717, 0.11296439170837402, 0.13108356297016144, 0.1803542971611023, 0.17507867515087128, 0.02130177989602089, 0.006764429155737162, -0.17401035130023956, -0.23963619768619537, -0.04974294453859329, 0.06664901971817017, 0.24607793986797333, 0.15717236697673798, -0.07606454193592072, 0.16052106022834778, 0.2438308596611023, 0.20238249003887177, 0.1456831842660904, 0.18973110616207123, 0.07008342444896698, 0.20626398921012878, 0.04787474498152733, 0.02414393611252308, 0.2030940055847168, 0.06018312647938728, 0.14119143784046173, -0.08772750943899155, -0.17773352563381195, 0.09119067341089249, 0.07320813834667206, 0.20040902495384216, 0.14345602691173553, 0.11069950461387634, 0.028064966201782227, 0.024384338408708572, -0.2760947048664093, -0.31709620356559753, 0.12650206685066223, 0.3115834593772888, 0.03651127219200134, 0.07213103771209717, -0.08195732533931732, 0.07051847130060196, 0.22246795892715454, 0.12665608525276184, 0.20315144956111908, 0.24674338102340698, 0.19667230546474457, 0.1761050671339035, -0.068735271692276, -0.029476292431354523, -0.053299807012081146, 0.06379082798957825, 0.048879481852054596, -0.019576799124479294, -0.0654350221157074, 0.012324009090662003, 0.1203465387225151, 0.14874528348445892, 0.16432106494903564, 0.09479069709777832, -0.03459477424621582, 0.09267104417085648], [-0.06319528818130493, -0.09734012186527252, -0.09998582303524017, -0.01650848612189293, -0.08722271770238876, 0.131151482462883, 0.2159806489944458, 0.04383142292499542, -0.13099494576454163, -0.06601593643426895, -0.09596677869558334, 0.12427224963903427, 0.06733545660972595, 0.2941453158855438, 0.22797733545303345, 0.4218168556690216, 0.3387379050254822, 0.167674258351326, 0.10084650665521622, -0.2221260368824005, -0.36401990056037903, -0.543648362159729, -0.5223104953765869, -0.4731176495552063, -0.2694636881351471, 0.0076225148513913155, 0.13850998878479004, 0.32137709856033325, -0.0530928336083889, -0.07514607161283493, -0.14536765217781067, -0.02213902585208416, -0.04154307767748833, 0.19479137659072876, 0.16261760890483856, 0.04462631046772003, -0.14335492253303528, -0.08927895128726959, 0.036368198692798615, 0.1552993506193161, 0.14046938717365265, 0.14538316428661346, 0.1632234901189804, 0.38613536953926086, 0.09692619740962982, -0.09846881031990051, -0.0534035786986351, -0.18398632109165192, -0.4008517563343048, -0.5653101205825806, -0.5158247947692871, -0.4359893798828125, -0.3429886996746063, -0.12140291184186935, -0.0018165931105613708, 0.24077534675598145, -0.08290743827819824, -0.09822331368923187, 0.03841076418757439, -0.02265995740890503, 0.0015226504765450954, 0.056044403463602066, -0.02479214034974575, -0.087949737906456, -0.18336918950080872, -0.017137451097369194, 0.025152722373604774, -0.012061015702784061, 0.0056037926115095615, 0.06310973316431046, 0.052418068051338196, 0.2701205909252167, 0.05466228350996971, -0.22626352310180664, -0.364860862493515, -0.368767112493515, -0.4832877218723297, -0.5180806517601013, -0.6387542486190796, -0.4245574474334717, -0.40866655111312866, -0.24855230748653412, -0.012037409469485283, 0.17325866222381592, -0.0016333784442394972, -0.16483643651008606, -0.02144472673535347, -0.014286389574408531, -0.04090283438563347, 0.09449975192546844, 0.01645597070455551, -0.0852741226553917, -0.08046918362379074, 0.07509002834558487, 0.17956764996051788, -0.05701916292309761, -0.0457613579928875, -0.06633206456899643, -0.02604236826300621, 0.2228224277496338, -0.14675109088420868, -0.21327614784240723, -0.222604900598526, -0.4256168603897095, -0.4066717326641083, -0.5297378301620483, -0.5757772922515869, -0.5672419667243958, -0.2535102665424347, -0.12570832669734955, -0.09485732018947601, 0.18267494440078735, -0.11243138462305069, -0.05907388776540756, 0.07004865258932114, 0.12784484028816223, -0.003713838756084442, 0.0996144488453865, 0.17353251576423645, 0.12789082527160645, -0.052899133414030075, 0.012403464876115322, 0.09797859936952591, -0.07114489376544952, -0.0003437693230807781, 0.11978550255298615, -0.142636239528656, 0.04424888268113136, -0.10494581609964371, -0.024592828005552292, 0.11630203574895859, -0.14190593361854553, -0.335837185382843, -0.3765799403190613, -0.45094940066337585, -0.49469441175460815, -0.38101035356521606, -0.18921057879924774, -0.08314038813114166, 0.00501918513327837, 0.004649019334465265, -0.17817628383636475, 0.043736040592193604, 0.0432882085442543, -0.028976883739233017, 0.07205752283334732, 0.08842777460813522, 0.16810664534568787, 0.02204723469913006, -0.06949403882026672, -0.034776005893945694, -0.41336795687675476, 0.10264689475297928, 0.0940631851553917, 0.1863558292388916, 0.14270973205566406, 0.13789984583854675, 0.24948307871818542, 0.2558474838733673, 0.21919706463813782, -0.06646072864532471, -0.3300328552722931, -0.2305164635181427, -0.14842301607131958, -0.34698420763015747, -0.1253116875886917, -0.21762661635875702, -0.12384950369596481, -0.11641738563776016, -0.1140713021159172, -0.02178233116865158, 0.15776006877422333, 0.06229272857308388, -0.06303038448095322, 0.10129198431968689, 0.15161029994487762, 0.027996543794870377, -0.24591343104839325, -0.22983306646347046, -0.12049137055873871, 0.12781037390232086, 0.13652031123638153, 0.4205002188682556, 0.1388331949710846, 0.22694166004657745, 0.12371066957712173, 0.2450854629278183, 0.23083394765853882, -0.03548679128289223, -0.286773681640625, 0.12757010757923126, 0.09001052379608154, -0.2996397316455841, -0.23446246981620789, -0.2529945969581604, -0.3077659010887146, -0.05330206826329231, -0.07570251822471619, 0.02757566049695015, 0.09070940315723419, 0.012817743234336376, 0.085881307721138, -0.24695797264575958, 0.07365717738866806, 0.06175040081143379, -0.10176568478345871, -0.1748369187116623, 0.450908362865448, 0.4400693476200104, 0.37054550647735596, 0.33501824736595154, -0.04092948138713837, -0.1773766279220581, -0.20325276255607605, -0.020009972155094147, 0.2840830683708191, 0.17571023106575012, -0.04017605260014534, 0.1173727810382843, 0.18320058286190033, -0.09139376878738403, -0.1772787719964981, -0.1645178496837616, -0.20984727144241333, 0.03141450881958008, -0.054100021719932556, 0.12384389340877533, 0.15245580673217773, 0.10448452085256577, -0.02187015675008297, -0.2563605308532715, 0.06983359158039093, 0.03834090754389763, 0.10761366039514542, -0.011560313403606415, 0.45425668358802795, 0.5486698150634766, 0.7107575535774231, 0.4874727427959442, -0.08887022733688354, -0.014194694347679615, 0.08875694125890732, -0.13455726206302643, 0.199463352560997, 0.2839435338973999, 0.03962057828903198, 0.01408176776021719, 0.026183290407061577, -0.034842055290937424, -0.1890072077512741, -0.20223872363567352, -0.24650613963603973, 0.07879097014665604, -0.034197866916656494, 0.10901235044002533, 0.10498163104057312, 0.07423122227191925, 0.17842063307762146, 0.02103375270962715, 0.05151665210723877, -0.21028545498847961, -0.022001734003424644, 0.11363055557012558, 0.33404964208602905, 0.18498913943767548, 0.5607205033302307, 0.4583014249801636, 0.21451908349990845, -0.20189021527767181, -0.18686524033546448, -0.013673660345375538, 0.2162548005580902, 0.29729142785072327, 0.2513742446899414, -0.0089977802708745, 0.1518222689628601, -0.04934163764119148, -0.026690542697906494, -0.09707069396972656, -0.25040146708488464, 0.08317189663648605, -0.049837712198495865, 0.009778859093785286, 0.056310415267944336, -0.041972167789936066, 0.1920212209224701, 0.13742396235466003, -0.029082007706165314, -0.27874472737312317, -0.3167731761932373, -0.07789059728384018, 0.06973831355571747, -0.2210155725479126, -0.1354271024465561, 0.13003414869308472, 0.139797642827034, -0.21454165875911713, -0.005510893650352955, 0.35054337978363037, 0.4405931532382965, 0.4665016531944275, 0.6426392197608948, 0.1591983437538147, 0.19130635261535645, -0.021770410239696503, -0.09395399689674377, 0.05807016044855118, -0.11503951996564865, -0.007454006467014551, 0.05493129417300224, 0.06920119374990463, 0.06319748610258102, -0.04296605661511421, 0.040048450231552124, 0.09278388321399689, 0.17522571980953217, -0.0561639778316021, -0.2990725636482239, -0.43753138184547424, -0.3961973488330841, -0.14586308598518372, -0.32523083686828613, -0.21207325160503387, -0.3131561577320099, 0.06301823258399963, 0.183701753616333, 0.1422576606273651, 0.33079585433006287, 0.10372401773929596, 0.699845016002655, 0.26423200964927673, 0.3761292099952698, 0.04631783068180084, 0.04675692692399025, 0.11831947416067123, -0.024915779009461403, 0.06751156598329544, -1.3426561054075137e-06, -0.03573356568813324, -0.09880616515874863, -0.10089342296123505, -0.01805528812110424, -0.032349612563848495, 0.06569473445415497, -0.11565256863832474, -0.1618911772966385, 0.05463552102446556, -0.2509491443634033, -0.2925167977809906, -0.03790738806128502, -0.26282697916030884, -0.643338680267334, 0.07402755320072174, -0.005121426656842232, 0.26497939229011536, 0.19859452545642853, 0.019086090847849846, 0.37214380502700806, 0.18841993808746338, 0.27112188935279846, 0.2647140622138977, 0.1702384650707245, 0.1270299106836319, -0.002775938715785742, -0.04839375987648964, 0.014461609534919262, -0.05222564563155174, -0.0425831563770771, -0.12168777734041214, -0.2142764925956726, -0.10775254666805267, -0.1021023541688919, 0.045777350664138794, 0.13532230257987976, 0.3205340504646301, 0.024936629459261894, -0.372039794921875, -0.03300393372774124, 0.12351655215024948, -0.5818524360656738, -0.06668004393577576, 0.3188132345676422, 0.23620815575122833, 0.12499673664569855, -0.041766706854104996, 0.182361900806427, 0.3442607820034027, 0.40772098302841187, 0.45623448491096497, 0.11730973422527313, 0.0646105408668518, 0.03337928652763367, -0.04970364272594452, -0.03419048711657524, -0.08248423784971237, -0.06153932586312294, -0.0016846705693751574, -0.17746473848819733, -0.1307196319103241, -0.040065765380859375, 0.1865350604057312, 0.35957106947898865, 0.15241111814975739, -0.0877109169960022, -0.1455756425857544, -0.015085030347108841, -0.03928985819220543, -0.399393230676651, -0.310136616230011, -0.12827204167842865, 0.0018322478281334043, -0.04777487739920616, -0.0064571313560009, 0.018922660499811172, 0.39478057622909546, 0.3490816354751587, 0.7511590123176575, 0.21333818137645721, 0.06135261058807373, 0.0782945305109024, -0.11566601693630219, 0.0422482043504715, 0.0014822875382378697, 0.039747994393110275, -0.008930993266403675, -0.21033930778503418, -0.1359437108039856, -0.023973608389496803, 0.11652015149593353, 0.277793288230896, 0.049847036600112915, -0.11939423531293869, -0.248261496424675, -0.22084231674671173, -0.3094886839389801, -0.4938686788082123, -0.5245048999786377, -0.47814232110977173, -0.2573310136795044, 0.09959884732961655, 0.2530437111854553, 0.08225098997354507, 0.5266093611717224, 0.46458882093429565, 0.6890119314193726, 0.2698107659816742, -0.025326266884803772, -0.03229757770895958, -0.04412822425365448, 0.06236731633543968, 0.045742668211460114, 0.025210119783878326, 0.058914389461278915, -0.12505079805850983, -0.034766361117362976, -0.13747930526733398, 0.03615551441907883, 0.14124369621276855, -0.020310550928115845, -0.1467980146408081, -0.37548404932022095, -0.12901535630226135, -0.5253088474273682, -0.7482305765151978, -0.7067802548408508, -0.309451699256897, -0.37516701221466064, 0.22603163123130798, 0.5298119783401489, 0.3781125545501709, 0.6558018922805786, 0.7637947797775269, 0.6295210719108582, 0.14596804976463318, 0.010820680297911167, -0.05057691037654877, -0.08009681850671768, -0.03491760790348053, -0.08291994035243988, -0.05412788316607475, -0.035967763513326645, 0.03370183706283569, 0.02744385041296482, 0.043603818863630295, -0.002750734332948923, 0.009314943104982376, -0.053188666701316833, -0.15106765925884247, -0.3808160424232483, -0.6997849345207214, -0.6693682074546814, -0.8404390811920166, -0.8143345713615417, -0.3968449831008911, -0.2550637423992157, 0.34107306599617004, 0.3113895356655121, 0.5411418080329895, 0.5399899482727051, 0.5821055173873901, 0.24157139658927917, 0.18001094460487366, -0.05597977340221405, -0.011989620514214039, -0.046985846012830734, 0.051682375371456146, -0.12521210312843323, -0.028175054118037224, 0.09828657656908035, 0.008032634854316711, -0.09910815209150314, -0.03340623527765274, -0.010229133069515228, 0.05802620202302933, -0.020220886915922165, -0.28371763229370117, -0.49912890791893005, -0.7493269443511963, -0.8518985509872437, -0.7820718288421631, -0.7926726937294006, -0.35701680183410645, -0.32310041785240173, 0.04758460819721222, 0.2126353681087494, 0.5125495791435242, 0.5402841567993164, 0.3705977201461792, 0.04279842972755432, 0.06786558032035828, 0.23060452938079834, 0.11502526700496674, -0.12200266867876053, -0.05295396223664284, -0.1325172632932663, -0.021906200796365738, 0.05590040236711502, 0.005075683817267418, -0.004618589300662279, -0.10420919954776764, -0.04259834066033363, -0.028240365907549858, -0.16651052236557007, -0.24736671149730682, -0.484216570854187, -0.6850358247756958, -0.6432893872261047, -0.722114086151123, -0.35419145226478577, -0.13655126094818115, -0.23108892142772675, 0.0454837903380394, 0.31890466809272766, 0.281045138835907, 0.5202294588088989, 0.24314457178115845, -0.014286723919212818, 0.30062392354011536, 0.2581583261489868, 0.3564954996109009, -0.057813018560409546, 0.04362471401691437, -0.07882994413375854, 0.03874784708023071, -0.11644160747528076, -0.027889693155884743, 0.007232058793306351, 0.006031586788594723, -0.0051723369397223, 0.03320106118917465, -0.023195065557956696, -0.30533257126808167, -0.4430665373802185, -0.3829711675643921, -0.634719967842102, -0.5171691179275513, -0.24786978960037231, -0.1859990507364273, -0.10601679235696793, 0.09050621092319489, 0.1081577017903328, 0.3019747734069824, 0.5317158699035645, 0.09436681866645813, 0.23351769149303436, 0.4545118808746338, 0.2918800413608551, 0.22302831709384918, -0.1297185868024826, 0.0295580942183733, -0.06085723638534546, -0.10870352387428284, -0.05795851722359657, 0.0004571594181470573, 0.17012864351272583, 0.1417093425989151, 0.020012369379401207, -0.07135533541440964, -0.06682370603084564, -0.3024273216724396, -0.32159188389778137, -0.2675425708293915, -0.3414754569530487, -0.13728229701519012, 0.11602190136909485, -0.03294207528233528, 0.174146369099617, -0.01447866577655077, 0.3219754099845886, 0.5148810744285583, 0.09934736788272858, 0.062283050268888474, 0.2909891903400421, 0.24147211015224457, 0.07801929116249084, 0.009269741363823414, -0.08810686320066452, 0.05751204118132591, -0.0755242183804512, -0.021014567464590073, 0.04534083977341652, 0.05081862583756447, 0.24072925746440887, 0.05985022336244583, -0.01403818093240261, 0.03413078188896179, -0.03347979858517647, -0.08830446749925613, 0.08180347084999084, -0.09058163315057755, -0.1974351704120636, 0.09452778846025467, 0.1917632520198822, 0.3140229284763336, 0.04606499522924423, 0.2519887089729309, 0.4758709669113159, 0.14954043924808502, -0.18141910433769226, 0.05242050066590309, 0.13126473128795624, 0.2430698424577713, 0.16856278479099274, 0.11444464325904846, -0.18730534613132477, -0.1293063908815384, -0.0030386673752218485, -0.027757365256547928, -0.07006827741861343, -0.1656932532787323, -0.14259518682956696, -0.07204972207546234, -0.0077617899514734745, 0.20846062898635864, 0.0769127830862999, 0.17986254394054413, 0.14782512187957764, -0.0517728291451931, 0.022128814831376076, 0.23168876767158508, 0.47521376609802246, 0.3742769956588745, 0.13317526876926422, 0.22645540535449982, 0.02713126689195633, -0.08175229281187057, -0.07173474878072739, 0.04427136108279228, 0.10049699246883392, 0.1926335245370865, 0.24704347550868988, 0.3255859911441803, 0.00343895610421896, -0.1294669210910797, -0.013751567341387272, -0.1566147655248642, -0.09499852359294891, -0.33583828806877136, -0.20123691856861115, -0.24986591935157776, -0.19683313369750977, 0.1745147407054901, 0.044715870171785355, 0.07392606139183044, 0.22284561395645142, -0.12223973125219345, 0.042317308485507965, 0.5145179629325867, 0.6253018379211426, 0.27807217836380005, 0.3208325505256653, -0.15473034977912903, -0.23673295974731445, -0.047209836542606354, -0.030667956918478012, -0.09187127649784088, -0.12428773194551468, -0.0034099160693585873, 0.099820077419281, 0.3069833815097809, 0.19786927103996277, 0.09910937398672104, -0.06537039577960968, 0.1380399763584137, 0.0037752746138721704, -0.08751624822616577, -0.03960166871547699, -0.2453830987215042, 0.029296865686774254, 0.23728513717651367, 0.08003824949264526, 0.10357652604579926, 0.1776573210954666, 0.032828301191329956, 0.1652543693780899, 0.6517324447631836, 0.4693116843700409, 0.4002065360546112, 0.14688357710838318, -0.20681074261665344, -0.13148632645606995, 0.1085672676563263, 0.012426170520484447, -0.1538114845752716, -0.2209547460079193, -0.0832403302192688, 0.26324141025543213, 0.20948587357997894, 0.05649108439683914, 0.024089446291327477, -0.006805811543017626, 0.054945845156908035, 0.046976618468761444, -0.07794690132141113, -0.17807477712631226, -0.17366009950637817, -0.0065941233187913895, 0.10022411495447159, 0.08228202909231186, 0.14598135650157928, 0.1698227971792221, 0.3041001558303833, 0.43853092193603516, 0.7149569392204285, 0.5508219003677368, 0.3481457233428955, 0.08340918272733688, 0.1719430536031723, 0.2827434837818146, 0.2550932466983795, 0.15907534956932068, 0.06536233425140381, 0.04831621050834656, 0.2400893121957779, 0.21165841817855835, 0.2248760461807251, 0.11069902032613754, 0.014631407335400581, 0.043281566351652145, 0.053809862583875656, 0.027660930529236794, -0.1840483695268631, -0.028150051832199097, 0.017414262518286705, 0.21444067358970642, 0.1997629702091217, 0.33894768357276917, 0.40927788615226746, 0.42693454027175903, 0.44203639030456543, 0.6655003428459167, 0.9226154088973999, 0.7351320385932922, 0.30066099762916565, 0.13924820721149445, -0.12513801455497742, 0.03534694388508797, 0.072231225669384, -0.06630080938339233, 0.05206853151321411, 0.08119762688875198, -0.021197352558374405, 0.09284600615501404, 0.1611853688955307], [-0.1129155382514, -0.15854604542255402, -0.018763065338134766, -0.05376145988702774, -0.10140666365623474, 0.06107054278254509, -0.010808802209794521, -0.0429430715739727, -0.14389736950397491, -0.18488217890262604, -0.1204780638217926, 0.013874436728656292, 0.06849408149719238, 0.20100407302379608, 0.09657075256109238, -0.0297691747546196, -0.03780520707368851, 0.10406813770532608, 0.3120681345462799, 0.2982975244522095, 0.31212708353996277, 0.04310993850231171, -0.09945876896381378, -0.24402643740177155, -0.21726655960083008, 0.03608284890651703, 0.05703132599592209, -0.039628200232982635, -0.07989894598722458, -0.17782512307167053, -0.15384581685066223, -0.04173664003610611, -0.05097460001707077, 0.07935035973787308, 0.12465711683034897, -0.052432477474212646, -0.18778719007968903, -0.2114013135433197, -0.0520121194422245, -0.06955292075872421, -0.007444897200912237, 0.16412216424942017, 0.1784133017063141, 0.0018271161243319511, -0.1953483670949936, 0.007863420993089676, 0.1780608594417572, 0.22737151384353638, 0.26578566431999207, 0.15772736072540283, 0.004545190371572971, -0.23493371903896332, -0.1516065150499344, -0.11521795392036438, -0.10200352221727371, -0.06467340886592865, -0.045698899775743484, -0.09125813096761703, -0.1123071014881134, -0.014108804985880852, -0.03859512135386467, 0.07019009441137314, 0.047228243201971054, -0.1253744661808014, -0.24363917112350464, -0.15804648399353027, -0.0015799208777025342, -0.0980912521481514, -0.0408068522810936, -0.08229143172502518, -0.12527450919151306, -0.13333924114704132, -0.4904678463935852, -0.2991611659526825, -0.030887160450220108, 0.10335599631071091, 0.10850123316049576, -0.1179506927728653, 0.04118860140442848, -0.002645773347467184, -0.017620299011468887, -0.018926279619336128, 0.01685740053653717, -0.0441465824842453, -0.0812082514166832, -0.1849495768547058, -0.0051548234187066555, -0.0756869986653328, -0.09396134316921234, -0.018053188920021057, -0.11277588456869125, -0.09555840492248535, -0.1781824827194214, -0.1715901494026184, -0.08177997171878815, -0.03516043722629547, 0.09706088155508041, 0.0651322528719902, -0.315385103225708, -0.32256579399108887, -0.7103663682937622, -0.4913540780544281, -0.3362543284893036, -0.25505366921424866, 0.020758390426635742, -0.2702162265777588, -0.1384212076663971, 0.007048623636364937, 0.020991362631320953, -0.08588457107543945, -0.02969331294298172, -0.015006450936198235, 0.02293430268764496, -0.10842201858758926, -0.06099851056933403, -0.05298241227865219, -0.05874516814947128, 0.0980682522058487, -0.024591118097305298, -0.13283316791057587, 0.033146630972623825, -0.13459493219852448, -0.08863433450460434, -0.050600431859493256, 0.08500385284423828, -0.03064539283514023, -0.2985502779483795, -0.3541654348373413, -0.5944282412528992, -0.41509419679641724, -0.5480493307113647, -0.45156222581863403, -0.24561373889446259, -0.19939997792243958, -0.250479519367218, -0.0027494197711348534, 0.032662879675626755, -0.05357716605067253, -0.016020897775888443, 0.05170632526278496, -0.04054788127541542, -0.08500295132398605, 0.05538075417280197, 0.0038779196329414845, 0.021383151412010193, -0.004480672534555197, -0.08016444742679596, -0.038524772971868515, -0.040553998202085495, -0.21722204983234406, -0.041004691272974014, -0.146601140499115, 0.2099444419145584, 0.036060184240341187, -0.17433667182922363, -0.2943710386753082, -0.5821703672409058, -0.2919803261756897, -0.23639443516731262, -0.320869117975235, -0.445637047290802, -0.2828002870082855, -0.08844609558582306, -0.018218856304883957, 0.08839298039674759, 0.031918808817863464, -0.1171548068523407, -0.09714381396770477, -0.0043825567699968815, -0.05598730221390724, -0.04855641722679138, -0.07584983110427856, -0.09355980157852173, 0.06630812585353851, -0.08948323130607605, -0.014979899860918522, -0.23145735263824463, -0.22352130711078644, -0.00988154485821724, -0.07827260345220566, 0.08367321640253067, -0.04189376160502434, -0.18324807286262512, -0.39226606488227844, -0.2999231815338135, -0.24540606141090393, -0.07153277844190598, -0.1838187426328659, -0.32102108001708984, -0.11267652362585068, 0.11446085572242737, 0.29983600974082947, 0.1898612529039383, 0.015200654044747353, -0.10769279301166534, -0.052104078233242035, -0.040506333112716675, -0.12084299325942993, -0.03845677524805069, -0.026415962725877762, -0.02856241911649704, -0.08805955201387405, -0.0945282131433487, 0.02034612186253071, -0.0125522306188941, 0.016519278287887573, 0.20999695360660553, -0.006799273658543825, -0.23753619194030762, -0.45907124876976013, -0.35369375348091125, -0.5198844075202942, -0.4785166382789612, -0.2721358835697174, -0.14709223806858063, -0.12879210710525513, -0.2816176116466522, 0.10194660723209381, 0.1984543353319168, 0.24672454595565796, 0.17540113627910614, -0.10260427743196487, 0.00019194319611415267, -0.08750668913125992, -0.0215475931763649, -0.032500848174095154, -0.06704913079738617, -0.13605758547782898, -0.028067972511053085, 0.09220540523529053, 0.04398652911186218, 0.0741654708981514, 0.15257956087589264, 0.2051253318786621, 0.10322209447622299, -0.011179818771779537, -0.07386795431375504, -0.4909490942955017, -0.4679400324821472, -0.5171893835067749, -0.37153199315071106, -0.23481769859790802, 0.10950025916099548, 0.23474787175655365, 0.22316327691078186, 0.26050570607185364, 0.12119575589895248, 0.07530767470598221, 0.35782086849212646, 0.11020906269550323, 0.10471881181001663, -0.08812176436185837, -0.08191131800413132, -0.04230846092104912, -0.08424539864063263, -0.055027104914188385, 0.015521829947829247, 0.05127682909369469, 0.05221894755959511, 0.2292521893978119, 0.2084863930940628, 0.29312020540237427, 0.048285212367773056, 0.05775734782218933, -0.11717108637094498, -0.29323819279670715, -0.0691344290971756, -0.008988250978291035, -0.06430944055318832, 0.08100758492946625, 0.29768744111061096, 0.401761919260025, 0.4223799407482147, 0.33398136496543884, 0.20973660051822662, 0.2732047736644745, 0.3066064417362213, 0.2597215175628662, 0.2464035004377365, -0.07321655005216599, -0.006684970576316118, -0.0038840309716761112, 0.01756288670003414, -0.044847678393125534, 0.04609059914946556, 0.10289263725280762, -0.12444040179252625, 0.09305166453123093, 0.12696070969104767, 0.19000384211540222, 0.2920161485671997, 0.19694451987743378, -0.1943494975566864, -0.30430522561073303, -0.08328409492969513, 0.1363312155008316, -0.15198957920074463, 0.04694964736700058, 0.4583248198032379, 0.26114633679389954, 0.14420609176158905, 0.2660709321498871, 0.34435397386550903, 0.2422490417957306, 0.2755029499530792, 0.215959370136261, 0.1508454978466034, -0.026827692985534668, -0.002648833440616727, -0.007269374560564756, -0.12291400134563446, -0.04174836352467537, 0.055819302797317505, 0.024511046707630157, -0.13887637853622437, -0.01498708501458168, 0.3168618977069855, 0.3820731043815613, 0.2435288429260254, 0.03857456520199776, -0.15932750701904297, 0.0049445535987615585, -0.20205383002758026, -0.0504104308784008, -0.0678226426243782, 0.019223865121603012, 0.004388333763927221, 0.2003079503774643, 0.37586286664009094, 0.31599894165992737, 0.11089125275611877, 0.35069558024406433, 0.07543642073869705, 0.07810002565383911, 0.062160830944776535, -0.18474605679512024, -0.10923390090465546, 0.065078005194664, -0.07098136097192764, -0.09238048642873764, -0.02032020315527916, -0.1695714145898819, -0.08509163558483124, -0.1649438440799713, 0.2109411656856537, 0.33296999335289, 0.3972448706626892, 0.07482587546110153, 0.20320570468902588, 0.12355409562587738, 0.057923320680856705, 0.01305133942514658, 0.2173028141260147, 0.35808756947517395, 0.09662604331970215, 0.07982690632343292, 0.24631410837173462, 0.3049682378768921, 0.003742050612345338, 0.27111944556236267, -0.05350569635629654, 0.030833620578050613, 0.03454357013106346, -0.08640465140342712, -0.0896129384636879, -0.0815771222114563, -0.22512662410736084, -0.10939165204763412, -0.14237076044082642, -0.1869983673095703, -0.14093904197216034, -0.29860326647758484, -0.06534896790981293, 0.26993125677108765, 0.17141574621200562, 0.19137795269489288, 0.22860479354858398, 0.10800672322511673, 0.37851250171661377, 0.01741800270974636, 0.2600497603416443, 0.35706356167793274, 0.11439014971256256, -0.09855547547340393, -0.09678565710783005, 0.01736736297607422, 0.044585220515728, 0.13288536667823792, 0.07944641262292862, 0.07107121497392654, -0.14812390506267548, 0.03814120963215828, -0.17429272830486298, -0.08914975076913834, -0.1500348001718521, -0.007835839875042439, -0.20385751128196716, -0.1034366711974144, -0.08691217750310898, -0.1873043179512024, -0.0015508260112255812, 0.05190843716263771, 0.09003540128469467, 0.06949178129434586, -0.07693695276975632, 0.09320017695426941, 0.257916659116745, 0.2301759570837021, 0.34672054648399353, 0.2714535593986511, 0.12633642554283142, -0.2897903323173523, -0.22489033639431, 0.0938204675912857, 0.040235720574855804, 0.08833201974630356, 0.0891401469707489, -0.02576540969312191, -0.08135418593883514, 0.042140644043684006, -0.10053214430809021, -0.08166392892599106, -0.07104746252298355, -0.06581933796405792, -0.1807611882686615, -0.19919443130493164, -0.14278803765773773, -0.19935712218284607, 0.015511803328990936, -0.01486079953610897, -0.018292639404535294, 0.05332157760858536, -0.14757101237773895, -0.1735105961561203, 0.1314840167760849, 0.27936434745788574, 0.3547056317329407, 0.2500167191028595, 0.047341298311948776, -0.42453786730766296, -0.23969587683677673, 0.08280006051063538, 0.13643622398376465, 0.21456387639045715, 0.20650285482406616, -0.0650392472743988, -0.10616374760866165, -0.08263175934553146, -0.13264252245426178, -0.15494757890701294, -0.14030927419662476, -0.07779209315776825, -0.0329640731215477, -0.07175767421722412, -0.10408805310726166, -0.23419448733329773, -0.036606937646865845, 0.13215374946594238, -0.15017488598823547, -0.061242636293172836, -0.025049464777112007, -0.10045800358057022, 0.11347168684005737, 0.2634405493736267, 0.3095128536224365, 0.26452118158340454, -0.11122862994670868, -0.6109604835510254, -0.13784600794315338, -0.06948026269674301, 0.2155802994966507, 0.2616410553455353, -0.10316996276378632, -0.052620746195316315, -0.006206839345395565, 0.0075503005646169186, -0.013562469743192196, -0.06842328608036041, -0.027284370735287666, -0.12819209694862366, -0.10464758425951004, -0.15203659236431122, -0.07462874054908752, -0.1986619234085083, 0.09480319917201996, 0.14166656136512756, -0.28109344840049744, -0.20180022716522217, -0.08510857075452805, 0.055513400584459305, 0.13442093133926392, 0.1102607399225235, 0.2509666085243225, 0.06185709685087204, -0.17701460421085358, -0.16120579838752747, -0.1487857550382614, -0.1974429190158844, 0.08691363781690598, 0.10373510420322418, -0.032536301761865616, 0.07140637934207916, -0.088846854865551, 0.05603868514299393, -0.06501663476228714, -0.08426634222269058, -0.12619814276695251, -0.10902088135480881, -0.016566120088100433, -0.15520577132701874, -0.09668631851673126, 0.020423198118805885, 0.07333943247795105, 0.05539313331246376, -0.2645202577114105, -0.2813734710216522, 0.09363313019275665, 0.32731351256370544, 0.3342595398426056, 0.265631765127182, 0.34122201800346375, 0.24571841955184937, -0.26659247279167175, -0.15331260859966278, -0.2984229326248169, -0.3086756765842438, 0.05441641807556152, 0.11053118854761124, 0.05010155960917473, -0.061492085456848145, -0.06515089422464371, -0.03397880867123604, 0.13906243443489075, 0.11682311445474625, -0.058158647269010544, 0.016190655529499054, 0.07571414113044739, 0.028345035389065742, 0.09977343678474426, 0.012003875337541103, 0.011343182995915413, -0.07671062648296356, -0.34307625889778137, -0.17972628772258759, -0.11923682689666748, 0.0864248126745224, 0.16182969510555267, 0.11353114247322083, 0.20772425830364227, 0.13930174708366394, -0.211558997631073, -0.38587507605552673, -0.2216523438692093, -0.17778241634368896, 0.058829016983509064, 0.01800002157688141, -0.13033530116081238, -0.0563444159924984, -0.04318540170788765, 0.0008430133457295597, 0.15821845829486847, 0.02638634294271469, 0.15244342386722565, 0.20254945755004883, 0.1278804987668991, 0.09611639380455017, 0.10242220759391785, 0.21143148839473724, 0.019620871171355247, -0.1482703983783722, -0.1033652275800705, 0.07920009642839432, -0.11263754218816757, -0.013961919583380222, 0.06054341793060303, 0.1552143543958664, 0.32132935523986816, 0.2053213268518448, -0.10326468199491501, -0.16328836977481842, -0.31382396817207336, -0.16206082701683044, -0.07685649394989014, -0.29794442653656006, -0.034898944199085236, 0.019005579873919487, 0.0009115361026488245, 0.041811395436525345, 0.1955643743276596, 0.15164895355701447, 0.12391945719718933, 0.15904264152050018, 0.19610749185085297, 0.07345093786716461, 0.07362870872020721, 0.09859669208526611, -0.05603308603167534, -0.16648125648498535, -0.14333397150039673, 0.08477744460105896, 0.15944159030914307, 0.13958491384983063, 0.31910598278045654, 0.20672288537025452, 0.3620801568031311, 0.140910342335701, 0.07184868305921555, -0.1280287206172943, -0.15776488184928894, -0.1200612485408783, -0.2380703240633011, -0.15129278600215912, -0.060087013989686966, -0.1206866130232811, 0.015617191791534424, 0.12167871743440628, 0.09763308614492416, 0.041421741247177124, 0.045213483273983, 0.11197131872177124, 0.1531142145395279, 0.18097221851348877, 0.1911197304725647, 0.19086718559265137, -0.1027221828699112, -0.1484152227640152, -0.0012727425200864673, 0.24282465875148773, 0.04060649499297142, 0.2881110906600952, 0.16564060747623444, 0.019913215190172195, 0.0046298871748149395, 0.08672161400318146, -0.10350173711776733, 0.09898830950260162, 0.03030732274055481, -0.16227731108665466, -0.19769087433815002, -0.07782121747732162, -0.07864252477884293, 0.06840352714061737, 0.220504492521286, 0.18794216215610504, 0.07180943340063095, -0.022666187956929207, 0.04760567471385002, 0.1509914994239807, 0.02416612207889557, -0.09754116088151932, -0.15698875486850739, 0.11092910170555115, -0.044347599148750305, -0.0911206603050232, -0.025448249652981758, -0.037136830389499664, 0.01631120964884758, 0.07352263480424881, -0.14189720153808594, 0.050420790910720825, 0.15153539180755615, -0.13049034774303436, -0.052455607801675797, 0.2240239530801773, 0.13759933412075043, 0.0008660670137032866, -0.12594923377037048, -0.18346022069454193, 0.11918269842863083, 0.1687639355659485, 0.16172222793102264, 0.2659919857978821, 0.068156898021698, -0.04890957102179527, 0.025800375267863274, 0.12381544709205627, 0.0803147628903389, 0.011759973131120205, -0.10917266458272934, -0.10859193652868271, -0.2092442512512207, -0.15485712885856628, -0.1793212741613388, -0.18347111344337463, -0.053195200860500336, -0.1503998339176178, -0.18969927728176117, 0.15166909992694855, 0.19546084105968475, -0.2065085768699646, 0.07082003355026245, 0.14053335785865784, 0.08360202610492706, 0.13169248402118683, -0.06448127329349518, -0.0721549242734909, 0.05490034073591232, 0.07974232733249664, 0.2745821475982666, 0.3908475935459137, 0.06433363258838654, 0.060475561767816544, -0.01099562831223011, -0.0632258877158165, -0.10327593982219696, -0.10112757235765457, -0.08238867670297623, -0.08434023708105087, -0.2720107436180115, -0.3117534816265106, -0.11286715418100357, -0.13495299220085144, -0.10159910470247269, -0.12254531681537628, -0.03117109090089798, 0.23831966519355774, 0.19292770326137543, -0.08499409258365631, 0.12424252182245255, 0.11126024276018143, 0.14483332633972168, 0.041774503886699677, -0.004522440489381552, -0.14576037228107452, 0.011181781068444252, 0.0784076526761055, 0.1651632934808731, 0.07872195541858673, 0.17697377502918243, 0.18682861328125, 0.07075218856334686, -0.13942404091358185, -0.20123372972011566, -0.14202582836151123, 0.032538995146751404, 0.015410462394356728, -0.16205823421478271, -0.24703064560890198, 0.06611587852239609, -0.05294099450111389, -0.07846472412347794, -0.03404289484024048, 0.1452251821756363, 0.21982477605342865, 0.1754836142063141, 0.03559434413909912, -0.030686546117067337, 0.18002590537071228, 0.38573428988456726, 0.0586882159113884, -0.046887241303920746, -0.059978313744068146, 0.05861259251832962, 0.02174375206232071, 0.05534975603222847, 0.1303587555885315, 0.1811194121837616, 0.1992652863264084, -0.00613687327131629, -0.04178998991847038, -0.02467593178153038, -0.038179077208042145, 0.10979299992322922, 0.13374097645282745, -0.08802373707294464, -0.011363214813172817, -0.03879659250378609, -0.02520347200334072, -0.28167247772216797, 0.0037666952703148127, 0.18176032602787018, 0.11465373635292053, 0.08325169235467911, -0.13313812017440796, -0.2568598687648773, 0.13804689049720764, 0.17377233505249023, 0.043749935925006866, 0.01338358223438263, -0.028895847499370575, -0.11513734608888626, 0.06862643361091614, 0.1644098311662674, -0.08384426683187485], [0.19422316551208496, 0.16269336640834808, 0.1398196816444397, -0.019156761467456818, -0.004142750054597855, 0.0902731791138649, -0.053832147270441055, -0.13344982266426086, -0.1613883674144745, -0.25432974100112915, -0.3155287802219391, -0.4085945785045624, -0.4729368984699249, -0.3549865782260895, -0.3428274691104889, -0.12341061979532242, 0.17083916068077087, 0.16174376010894775, 0.1491999328136444, 0.07336616516113281, 0.15964989364147186, 0.05611789971590042, -0.14316102862358093, 0.032365184277296066, 0.14113855361938477, 0.4345236122608185, 0.4790855944156647, 0.5108561515808105, 0.13776157796382904, 0.0022377038840204477, 0.05908224359154701, 0.013730337843298912, 0.02318713441491127, -0.006878212094306946, -0.009373717941343784, -0.10008551925420761, -0.27363336086273193, -0.1918705701828003, -0.2494945526123047, -0.47577962279319763, -0.3162495791912079, -0.3896240293979645, -0.3224192261695862, -0.09297032654285431, 0.0786045640707016, -0.07477371394634247, 0.24303892254829407, 0.13031873106956482, 0.20694762468338013, 0.16053935885429382, -0.017773207277059555, -0.08319563418626785, 0.21029257774353027, 0.4716993570327759, 0.36719200015068054, 0.43271204829216003, -0.03144073858857155, -0.042766932398080826, 0.09135998040437698, 0.07158053666353226, -0.07456332445144653, 0.01844898983836174, 0.12469595670700073, -0.12904614210128784, -0.10011006146669388, -0.07612831890583038, -0.19255821406841278, -0.34728458523750305, -0.3350498676300049, -0.35545656085014343, -0.21259424090385437, -0.06111804395914078, -0.051938094198703766, -0.08595104515552521, -0.028803449124097824, 0.1369832307100296, 0.1411001831293106, -0.01137805450707674, -0.08916052430868149, 0.08576379716396332, 0.25791820883750916, 0.25918251276016235, 0.2898436486721039, 0.38030877709388733, 0.02305973693728447, -0.09376049041748047, 0.004401034209877253, 0.03798263147473335, -0.041501790285110474, -0.11087685823440552, 0.28604406118392944, -0.06568118184804916, -0.02348744124174118, 0.1908206045627594, -0.0409017838537693, -0.25459930300712585, -0.18172228336334229, -0.38928693532943726, -0.4778900742530823, -0.009954921901226044, -0.1880294382572174, -0.03983461484313011, 0.2279650866985321, 0.09620918333530426, 0.0771576389670372, -0.09575803577899933, -0.14488649368286133, 0.04390580207109451, 0.08900871872901917, 0.18832871317863464, 0.1902572363615036, 0.17621350288391113, -0.06600554287433624, -0.07179941982030869, 0.012823163531720638, 0.024772681295871735, -0.14091305434703827, -0.14352434873580933, 0.19570691883563995, -0.10884677618741989, 0.019151804968714714, 0.23333078622817993, 0.0226956345140934, -0.07476044446229935, 0.07353122532367706, -0.42442357540130615, -0.41330939531326294, -0.09300496429204941, -0.030931206420063972, 0.15932992100715637, 0.20149941742420197, 0.25462326407432556, 0.062060341238975525, -0.08831197023391724, -0.23264822363853455, -0.14266294240951538, 0.03299367427825928, 0.20601749420166016, 0.08841907232999802, 0.07298146188259125, -0.011227959766983986, 0.004892378114163876, -0.012400456704199314, 0.04993972182273865, -0.0617484450340271, -0.1587953269481659, 0.22712145745754242, -0.17304104566574097, 0.04004416987299919, 0.1997774839401245, 0.024060722440481186, -0.0579376257956028, -0.12208063155412674, -0.26808416843414307, -0.22247497737407684, -0.07357989251613617, 0.008843238465487957, 0.019777651876211166, -0.19432157278060913, 0.06832969188690186, 0.06465353816747665, -0.07031091302633286, -0.35562047362327576, -0.21765783429145813, -0.11869186908006668, 0.04756836220622063, 0.13052693009376526, 0.06197214499115944, -0.11511241644620895, -0.07262318581342697, -0.038879554718732834, -0.0012524095363914967, 0.040297847241163254, -0.19009430706501007, 0.263057142496109, 0.051492758095264435, 0.04550764337182045, 0.1667969971895218, -0.05397159978747368, -0.01497289165854454, 0.08210735768079758, -0.2564675807952881, -0.22554543614387512, -0.03201354295015335, -0.16382278501987457, -0.09529677778482437, -0.37029024958610535, -0.05892462283372879, -0.035388749092817307, -0.15170586109161377, -0.10491596162319183, -0.36474427580833435, -0.4109090566635132, -0.08827284723520279, -0.02134101651608944, -0.055662836879491806, -0.0671752542257309, -0.07717210054397583, -0.13459937274456024, -0.04666294902563095, 0.002784652868285775, -0.16580846905708313, 0.15060922503471375, 0.2889101803302765, 0.021918751299381256, 0.2303939014673233, -0.04807080328464508, 0.025150595232844353, 0.2903836965560913, 0.24325621128082275, 0.10043209046125412, 0.08617189526557922, -0.19178028404712677, -0.22491827607154846, -0.13887238502502441, 0.2985292971134186, 0.10569402575492859, -0.2622038424015045, -0.0475413016974926, -0.3456563949584961, -0.5702351331710815, -0.006542623974382877, -0.015022644773125648, -0.07487698644399643, -0.05722283944487572, -0.08491501957178116, -0.07141219824552536, 0.061323873698711395, -0.02716062217950821, -0.08976113051176071, 0.09610173106193542, 0.21114538609981537, 0.05076264217495918, 0.20998963713645935, 0.07570551335811615, 0.18418201804161072, 0.4190998375415802, 0.39941269159317017, 0.17246589064598083, 0.001758324564434588, -0.05115975812077522, -0.19055746495723724, -0.11679486185312271, 0.09082159399986267, -0.08847648650407791, -0.3697344660758972, 0.07014621794223785, -0.2219320833683014, -0.6227346658706665, -0.2563715875148773, 0.014222185127437115, 0.0585695244371891, -0.07789697498083115, -0.14235226809978485, -0.04167361930012703, 0.030144648626446724, -0.049034036695957184, -0.004125669132918119, 0.006515899673104286, 0.12824083864688873, 0.20950239896774292, 0.11971986293792725, 0.13216735422611237, 0.12693847715854645, 0.30961349606513977, 0.11863312870264053, 0.05415043607354164, 0.00846016500145197, -0.45605045557022095, -0.44510194659233093, -0.15994900465011597, -0.22201454639434814, -0.3094169795513153, -0.15564754605293274, 0.025067316368222237, 0.07874367386102676, -0.36161330342292786, -0.5939457416534424, -0.2032545804977417, 0.02961088716983795, -0.05746954679489136, -0.13516363501548767, -0.1100623831152916, -0.06693938374519348, -0.05630124360322952, 0.10805431753396988, -0.007021347992122173, 0.14557819068431854, 0.17407818138599396, 0.06325774639844894, 0.09772569686174393, 0.3324204683303833, 0.12197644263505936, -0.0987841784954071, 0.04908986762166023, -0.2315821647644043, -0.498708039522171, -0.5479040145874023, -0.164158433675766, 0.07306349277496338, -0.20605212450027466, -0.302991658449173, 0.24835136532783508, 0.12975239753723145, -0.23098239302635193, -0.5546594262123108, -0.3151744306087494, -0.0005595818511210382, -0.004831272643059492, -0.12643775343894958, -0.03236410766839981, -0.08141189068555832, -0.06844975799322128, 0.2059154212474823, -0.14355692267417908, -0.00446699233725667, 0.13504838943481445, -0.02469843067228794, 0.16990862786769867, 0.10932283848524094, 0.13583074510097504, -0.07840657234191895, -0.1277686506509781, -0.4196901023387909, -0.770359992980957, -0.5160343647003174, -0.11252053827047348, 0.08594325929880142, -0.17421534657478333, -0.1844896823167801, 0.4435250163078308, 0.14890338480472565, -0.233836367726326, -0.40831735730171204, -0.27190256118774414, 0.015481315553188324, -0.05203329771757126, -0.0688641369342804, -0.046292126178741455, -0.022119995206594467, -0.023125743493437767, 0.11589168012142181, -0.11389830708503723, -0.091575987637043, -0.01610504277050495, -0.0065844617784023285, 0.11616035550832748, -0.02706746757030487, 0.06001550704240799, 0.05104056000709534, -0.3416885733604431, -0.25333482027053833, -0.619958221912384, -0.34756651520729065, -0.03582901880145073, -0.3359576165676117, -0.5561815500259399, 0.15275445580482483, 0.5774205327033997, 0.01843365840613842, -0.24273449182510376, -0.4701938033103943, -0.030751628801226616, -0.05642271786928177, 0.01681220345199108, -0.13705424964427948, -0.006519629620015621, -0.14358428120613098, 0.09270312637090683, 0.007120034191757441, -0.006138328462839127, -0.029875826090574265, -0.09858336299657822, 0.1428360491991043, 0.299119770526886, 0.20218345522880554, -0.14940249919891357, -0.14052192866802216, -0.22880347073078156, -0.07741782814264297, -0.2068820595741272, -0.049953948706388474, 0.0799916535615921, -0.30550289154052734, -0.7430665493011475, 0.08390576392412186, 0.19022467732429504, -0.09785724431276321, -0.06469500809907913, -0.22172032296657562, 0.054429855197668076, -0.052914559841156006, -0.10561319440603256, -0.12241664528846741, -0.07999756932258606, -0.21449582278728485, 0.07003109902143478, 0.055560458451509476, 0.10366352647542953, 0.0477118045091629, 0.041748519986867905, 0.12281455844640732, 0.3150551915168762, 0.3628346025943756, -0.1749446839094162, -0.6488608717918396, -0.20090211927890778, -0.0160839781165123, -0.15658244490623474, -0.003604830475524068, 0.21339327096939087, 0.004662976134568453, -0.25915706157684326, -0.12875190377235413, -0.13135214149951935, 0.0057051838375627995, -0.10628867894411087, -0.04803607985377312, 0.17729932069778442, -0.06282131373882294, -0.0792570561170578, -0.11499864608049393, -0.01157304085791111, -0.1515142172574997, -0.003774052718654275, 0.13063029944896698, 0.07806017994880676, 0.13044612109661102, 0.11809773743152618, 0.18699929118156433, 0.23858730494976044, 0.39462268352508545, 0.26867973804473877, -0.0035642285365611315, 0.04866847023367882, -0.27361270785331726, 0.12021685391664505, 0.33028340339660645, 0.32779547572135925, 0.37800782918930054, 0.05115281045436859, -0.5140774846076965, -0.15122193098068237, 0.1236112043261528, 0.10746488720178604, 0.17260141670703888, 0.07721643894910812, -0.0028349687345325947, -0.15276844799518585, -0.10578487813472748, -0.09964224696159363, -0.11578809469938278, -0.017987603321671486, -0.10757370293140411, 0.10527028143405914, 0.17584091424942017, 0.06823837757110596, -0.018420452252030373, 0.4974450469017029, 0.6327039003372192, 0.39523985981941223, 0.17900119721889496, -0.03838583827018738, 0.03517773002386093, 0.1705302894115448, 0.24726244807243347, 0.058135587722063065, 0.23330137133598328, -0.13238199055194855, -0.379922091960907, -0.14639542996883392, 0.12194614112377167, 0.3732616603374481, 0.010457159951329231, 0.19892564415931702, -0.13777732849121094, -0.10719294846057892, -0.06938629597425461, -0.09768196940422058, -0.01175350695848465, 0.061822183430194855, -0.08372068405151367, -0.03140413761138916, 0.17457707226276398, -0.023299595341086388, -0.029517678543925285, 0.3667967617511749, 0.49556341767311096, 0.1312556266784668, 0.265618234872818, 0.18430374562740326, 0.026717549189925194, -0.1437130868434906, -0.11241493374109268, -0.1208830177783966, -0.09375672042369843, -0.4690706133842468, -0.01308378390967846, -0.18234792351722717, 0.026351258158683777, 0.1126089096069336, 0.0579705536365509, 0.13291342556476593, -0.038242608308792114, -0.24020150303840637, -0.08019615709781647, -0.024719875305891037, -0.08965659141540527, -0.1311270296573639, -0.1038549393415451, -0.08745194226503372, -0.04085348919034004, 0.01747114025056362, 0.1541915237903595, 0.31343168020248413, 0.2708328068256378, 0.007230447605252266, 0.38180026412010193, 0.22800187766551971, 0.04468577727675438, 0.0055127195082604885, -0.14568859338760376, -0.40367668867111206, -0.3172881305217743, -0.31547656655311584, -0.07528844475746155, -0.17442987859249115, -0.0788133293390274, 0.15402789413928986, 0.2762945592403412, 0.10736452043056488, -0.019147196784615517, -0.17161603271961212, -0.22608616948127747, -0.0685134157538414, -0.17575515806674957, -0.12084010243415833, -0.10057762265205383, -0.14532537758350372, -0.025372005999088287, 0.1314927190542221, 0.1342082917690277, 0.21293656527996063, 0.10699879378080368, 0.07432257384061813, 0.5958052277565002, 0.49886226654052734, 0.30111435055732727, 0.3382956087589264, 0.16091297566890717, -0.1276492029428482, -0.3147617280483246, -0.04291622340679169, 0.052947018295526505, -0.27490508556365967, 0.08827083557844162, 0.4850952923297882, 0.11381608992815018, -0.0727679431438446, 0.09161157160997391, -0.23138947784900665, -0.1316511631011963, 0.004005367401987314, -0.04580889642238617, -0.11849135160446167, 0.000541787885595113, -0.11658584326505661, 0.024493828415870667, 0.1178184226155281, 0.10643798857927322, -0.025155862793326378, -0.1622924655675888, 0.08204621076583862, 0.6350838541984558, 0.4872855842113495, 0.21944837272167206, 0.45441362261772156, 0.20781029760837555, 0.12875404953956604, -0.08988737314939499, -0.005552469287067652, 0.09480100870132446, -0.12699368596076965, 0.4826282262802124, 0.27756020426750183, 0.1475893259048462, 0.041207585483789444, 0.0516536608338356, -0.08406198024749756, -0.08437350392341614, 0.014444166794419289, -0.01994367316365242, -0.06550391018390656, -0.013092105276882648, 0.044674117118120193, -0.030413134023547173, 0.08963312953710556, 0.1912732869386673, 0.01179751567542553, -0.07984713464975357, -0.13914644718170166, 0.29853588342666626, 0.34425973892211914, 0.2725457549095154, 0.4538194537162781, 0.29538819193840027, 0.23895204067230225, 0.11091959476470947, 0.14550606906414032, 0.14197786152362823, 0.09368394315242767, 0.39090776443481445, 0.2306530624628067, 0.21364063024520874, 0.007085784804075956, -0.017865773290395737, -0.10274337232112885, 0.028870565816760063, 0.12491264939308167, 0.08044756203889847, -0.029824769124388695, -0.056923724710941315, -0.066046804189682, 0.13930365443229675, 0.08289409428834915, 0.1279226690530777, -0.05854451656341553, -0.06742463260889053, 0.08811106532812119, 0.2691090703010559, 0.40150803327560425, 0.12364742904901505, 0.441562682390213, 0.2833867073059082, -0.04169819504022598, 0.00215470721013844, 0.36543169617652893, 0.0805005431175232, 0.4269387125968933, 0.32466921210289, 0.21193628013134003, 0.055539507418870926, -0.13238659501075745, -0.016071341931819916, -0.09174233675003052, 0.005346965044736862, 0.11620434373617172, 0.10410594195127487, -0.0008794711902737617, 0.15826159715652466, -0.02211366780102253, -0.07695184648036957, 0.13854065537452698, -0.016154902055859566, -0.007348376791924238, 0.0012212274596095085, 0.14777180552482605, 0.4211002290248871, 0.37798720598220825, 0.10664930194616318, 0.3968876004219055, 0.359192430973053, 0.05847642943263054, 0.3694479763507843, 0.2570156753063202, 0.3123762607574463, 0.2676140367984772, -0.015479261055588722, -0.026150325313210487, -0.03425304591655731, 0.006369912065565586, -0.006981281563639641, -0.09615365415811539, 0.0821448490023613, 0.07985872030258179, 0.06399136781692505, 0.12641717493534088, -0.0074037243612110615, -0.15931332111358643, -0.16798268258571625, 0.06317531317472458, -0.1960960179567337, -0.18611277639865875, 0.038413941860198975, 0.11188626289367676, 0.16885581612586975, 0.03815856948494911, 0.16365747153759003, 0.33525845408439636, 0.19081521034240723, 0.05898423120379448, 0.24057234823703766, 0.013234126381576061, 0.35074523091316223, -0.16346214711666107, -0.2230890393257141, -0.01197768934071064, 0.09928853064775467, -0.035788506269454956, -0.07292308658361435, -0.04308811575174332, 0.04667045548558235, -0.07458700239658356, 0.13915422558784485, 0.23303136229515076, 0.025671258568763733, -0.2848180830478668, -0.20584696531295776, -0.022246981039643288, -0.23537813127040863, -0.19164009392261505, 0.09352926164865494, -0.05159871652722359, -0.10231532901525497, -0.15699614584445953, -0.04219776764512062, 0.0882285088300705, -0.1841876357793808, 0.1458563208580017, -0.20002694427967072, -0.02565833553671837, 0.02910556085407734, -0.1916138231754303, -0.15191271901130676, -0.1975124031305313, 0.03529500961303711, -0.03388731926679611, 0.030116083100438118, 0.10036581754684448, -0.10027560591697693, -0.0736905112862587, 0.21452218294143677, 0.07194814085960388, 0.14422111213207245, -0.1579534262418747, 0.00887317955493927, -0.14145022630691528, -0.1649555265903473, -0.027930336073040962, 0.10211024433374405, -0.02011977881193161, 0.00398202845826745, -0.09019780904054642, -0.019282186403870583, -0.18334919214248657, -0.1703338921070099, -0.12506191432476044, -0.23340101540088654, 0.11749882996082306, 0.048220206052064896, -0.024292832240462303, 0.08725874871015549, 0.023618053644895554, 0.1884586364030838, -0.014278082177042961, -0.13813309371471405, 0.021505732089281082, -0.021232711151242256, 0.18039235472679138, 0.22906708717346191, 0.12788422405719757, 0.0810408964753151, -0.16064776480197906, -0.04326001554727554, -0.00034689283347688615, -0.06300120055675507, 0.1327684074640274, 0.21678707003593445, 0.30411648750305176, 0.2081880122423172, 0.04423924908041954, 0.08609012514352798, -0.3787210285663605, -0.27046847343444824, -0.29856398701667786, -0.2522675096988678, 0.06542842835187912, 0.059672191739082336, 0.05619373545050621, 0.17261402308940887, 0.08759726583957672, 0.046040359884500504, -0.11827077716588974, -0.21915006637573242], [-0.14474301040172577, -0.08010713011026382, -0.06974608451128006, -0.031141003593802452, -0.03548919036984444, -0.05085372179746628, 0.12328284233808517, 0.06259079277515411, 0.015306655317544937, -0.06562239676713943, 0.06632248312234879, 0.2121894210577011, 0.2614434063434601, 0.326609343290329, 0.32414430379867554, 0.3332839012145996, -0.031064100563526154, 0.048130422830581665, 0.08134666830301285, -0.03932669758796692, -0.24147944152355194, -0.06709472835063934, -0.10252828896045685, -0.06707485020160675, -0.1662263423204422, 0.006128614768385887, -0.15106968581676483, -0.12205053120851517, -0.0911177322268486, -0.1547395884990692, -0.056939706206321716, -0.1159246414899826, -0.16238920390605927, 0.06354144215583801, 0.08744406700134277, 0.027244072407484055, 0.014055568724870682, -0.02213464118540287, -0.05094647780060768, 0.24564626812934875, 0.20213113725185394, 0.2235676497220993, 0.3071132302284241, 0.29571327567100525, -0.08144353330135345, -0.0040153032168745995, -0.11158911883831024, -0.13655555248260498, -0.2557530105113983, -0.17750005424022675, -0.07470232993364334, 0.009825228713452816, -0.055928390473127365, -0.19882634282112122, -0.17079497873783112, -0.07201094925403595, -0.07545347511768341, -0.08990762382745743, -0.0732327252626419, -0.01985887624323368, -0.06113308668136597, 0.054515235126018524, -0.11904990673065186, 0.022591251879930496, -0.2648559510707855, -0.19260263442993164, -0.031532660126686096, 0.2298838049173355, 0.014736507087945938, 0.24672257900238037, 0.11043110489845276, 0.0918644368648529, -0.1805928498506546, 0.024126620963215828, -0.10952727496623993, -0.14169253408908844, -0.21022771298885345, -0.0917760506272316, 0.04320425167679787, 0.00029019356588833034, -0.1451699435710907, -0.24418382346630096, -0.1382019966840744, -0.09007997065782547, -0.04473946616053581, -0.04993276298046112, 0.055628132075071335, -0.14602355659008026, -0.028538016602396965, 0.07715609669685364, -0.3263240158557892, -0.10961747914552689, -0.16787096858024597, -0.21217992901802063, 0.01924051158130169, 0.041354767978191376, -0.16115908324718475, 0.10241249948740005, 0.2196677178144455, 0.04551633074879646, -0.19694074988365173, -0.14155153930187225, -0.14913731813430786, -0.07381775230169296, -0.12359079718589783, -0.14253757894039154, 0.008272133767604828, 0.014299212023615837, -0.0734681487083435, -0.038762833923101425, -0.08774196356534958, -0.007874325849115849, 0.005090369377285242, -0.017669960856437683, -0.03722555190324783, -0.0935181975364685, 0.00265891058370471, 0.12279055267572403, -0.15553145110607147, -0.017690395936369896, -0.07475044578313828, -0.38919004797935486, -0.17128035426139832, -0.10925203561782837, -0.25722044706344604, 0.24488122761249542, 0.2755119800567627, -0.12389982491731644, -0.12177034467458725, -0.049049049615859985, 0.143590047955513, -0.008635669015347958, -0.12872464954853058, 0.15787740051746368, 0.11105889827013016, 0.09876339882612228, -0.003525064792484045, -0.018284695222973824, -0.024566978216171265, 0.08508007228374481, -0.001861856784671545, 0.036266881972551346, 0.02397819794714451, -0.015248962678015232, 0.08569560945034027, 0.03592841699719429, -0.287293940782547, 0.028513196855783463, -0.12466764450073242, -0.5370458960533142, -0.31097161769866943, -0.22483529150485992, -0.03358151391148567, 0.2118859589099884, 0.07328259944915771, -0.07076394557952881, 0.037230268120765686, 0.27214357256889343, 0.5364239811897278, 0.2760915756225586, 0.12107833474874496, 0.1943833827972412, 0.30898258090019226, 0.22243769466876984, 0.06314075738191605, 0.12814712524414062, -0.18498024344444275, 0.01141421590000391, 0.0718829482793808, 0.009829043410718441, 0.023623047396540642, -0.020072855055332184, 0.03259892016649246, -0.016924068331718445, -0.36798638105392456, -0.197393998503685, -0.2161434292793274, -0.49550914764404297, -0.213795468211174, -0.254112184047699, -0.04345671832561493, 0.14273259043693542, 0.1510629951953888, 0.18031106889247894, 0.545891284942627, 0.39531049132347107, 0.5450849533081055, 0.4737265706062317, 0.20732881128787994, 0.1902656853199005, 0.33412110805511475, 0.4479650855064392, 0.2618899941444397, 0.05302216112613678, -0.06212408468127251, 0.007928930222988129, -0.01108335517346859, 0.03197270631790161, 0.0938151627779007, 0.06093398854136467, -0.004425596445798874, -0.03514842316508293, -0.2988240718841553, -0.2178892195224762, 0.0057348646223545074, -0.3307865262031555, -0.19599471986293793, -0.024955151602625847, -0.11320053040981293, -0.05444183945655823, 0.00326139316894114, -0.03835134208202362, 0.23215392231941223, 0.3150882124900818, 0.23915663361549377, 0.0831369161605835, 0.11465954035520554, 0.24858716130256653, 0.23668482899665833, 0.38715189695358276, 0.4571113586425781, -0.12135162949562073, -0.02180168218910694, 0.0439598523080349, 0.14870493113994598, -0.011437181383371353, 0.14962714910507202, -0.002527432283386588, -0.06766907125711441, 0.043047945946455, -0.3185165226459503, -0.276900976896286, -0.017003212124109268, 0.05525913089513779, -0.05540873855352402, -0.002390859182924032, 0.015839889645576477, 0.07898213714361191, 0.017464706674218178, -0.10885071754455566, 0.16649580001831055, 0.24621465802192688, 0.12859779596328735, 0.25252413749694824, 0.43170735239982605, 0.31601274013519287, 0.1313154697418213, 0.23213188350200653, 0.6114302277565002, 0.22837120294570923, 0.05395282804965973, -0.11820376664400101, 0.03076963685452938, 0.11338427662849426, 0.07401421666145325, 0.02273184433579445, 0.05725838243961334, 0.03775722160935402, -0.24544759094715118, -0.10803915560245514, -0.25708842277526855, 0.04037380963563919, 0.01426168903708458, 0.03579724207520485, 0.0435866117477417, 0.30334267020225525, 0.39858514070510864, 0.3352416157722473, 0.28923317790031433, 0.2784508466720581, 0.14840926229953766, 0.11424269527196884, 0.4507656991481781, 0.4343074858188629, 0.05709129571914673, 0.09045562893152237, 0.38442689180374146, 0.5462294220924377, 0.26048219203948975, -0.09616237133741379, 0.022044222801923752, 0.1253976672887802, 0.036067694425582886, -0.05985691025853157, 0.06400762498378754, -0.0707692876458168, -0.0584808886051178, -0.21492277085781097, -0.2904224991798401, 0.0894765853881836, 0.04157809913158417, 0.06426329910755157, 0.14045895636081696, 0.28411543369293213, 0.2593981921672821, 0.32426679134368896, 0.23455041646957397, 0.15989646315574646, 0.20803816616535187, -0.0948430523276329, 0.18037916719913483, 0.5346078872680664, -0.0012192662106826901, 0.057374101132154465, 0.18975290656089783, 0.49364590644836426, 0.38949230313301086, -0.04590286687016487, 0.07359803467988968, 0.14663083851337433, 0.0058821095153689384, 0.018825609236955643, -0.09669952839612961, -0.19589684903621674, 0.15102221071720123, -0.1504562646150589, -0.01890784502029419, 0.21346010267734528, 0.03452957049012184, 0.05356955528259277, 0.24074611067771912, 0.0013708437327295542, -0.025880565866827965, 0.04230283945798874, 0.2786515951156616, 0.10433187335729599, -0.14760258793830872, -0.19032642245292664, -0.00782284140586853, 0.4783797264099121, -0.20409676432609558, 0.05067120119929314, 0.14177639782428741, 0.28321483731269836, 0.1663564145565033, -0.04916516691446304, 0.10570456832647324, 0.11003042757511139, -0.040626734495162964, -0.10145655274391174, -0.23990267515182495, -0.2684672772884369, -0.06383064389228821, -0.08440325409173965, 0.057001642882823944, 0.10239870101213455, 0.2541140019893646, 0.10878335684537888, 0.21709874272346497, 0.19875021278858185, 0.19812849164009094, -0.19348421692848206, 0.36944082379341125, 0.07773140072822571, -0.11613994091749191, 0.1508370190858841, 0.29801270365715027, 0.13167285919189453, -0.5027493834495544, 0.08860079199075699, 0.20724156498908997, 0.2044546753168106, 0.08673451095819473, -0.058056578040122986, 0.03962799534201622, -0.0451897457242012, -0.019293272867798805, 0.03688550367951393, -0.2578522264957428, -0.19558604061603546, -0.1171865239739418, -0.28652167320251465, 0.0626923069357872, 0.1811494082212448, 0.13146817684173584, 0.09152693301439285, 0.1696990728378296, 0.2939682900905609, 0.3915732204914093, -0.22239471971988678, 0.1646638661623001, 0.1862417757511139, -0.11872126162052155, 0.3026065528392792, 0.47264620661735535, -0.20944705605506897, -0.1733466535806656, 0.1352340430021286, 0.1974031776189804, 0.29976096749305725, 0.01973683200776577, 0.07851558178663254, -0.15526358783245087, 0.022450486198067665, 0.0013934108428657055, 0.06916767358779907, -0.15566067397594452, -0.16704706847667694, -0.2749207615852356, -0.08983655273914337, 0.1549805998802185, 0.08516260236501694, -0.06440766155719757, -0.12890806794166565, 0.023979583755135536, 0.5661976337432861, 0.19777171313762665, 0.008913325145840645, 0.2581154704093933, 0.06709730625152588, -0.2062579095363617, -0.1026281788945198, 0.07422655820846558, 0.0042504919692873955, -0.1395910233259201, -0.09979858994483948, 0.26844683289527893, 0.1808018982410431, -0.1229218989610672, -0.04317774996161461, -0.07179760932922363, -0.11182433366775513, -0.09333018213510513, -0.010513944551348686, -0.1768919974565506, -0.18910199403762817, -0.2635076344013214, -0.1124194785952568, 0.030301081016659737, 0.011051209643483162, -0.22252538800239563, -0.44431182742118835, -0.3675576150417328, -0.2300000935792923, -0.06033400446176529, 0.2099440097808838, -0.08980707824230194, -0.11053759604692459, -0.3085457384586334, -0.20183348655700684, 0.09024343639612198, 0.1497190147638321, -0.058901604264974594, -0.015899449586868286, 0.16358837485313416, -0.01712922751903534, 0.018796594813466072, -0.03904937207698822, -0.05355146527290344, -0.05743670091032982, -0.12622249126434326, 0.024316761642694473, -0.07491165399551392, -0.1108466386795044, -0.11386296898126602, -0.2676633894443512, -0.0876946821808815, 0.10809376090765, -0.3271158039569855, -0.519592821598053, -0.5813819766044617, -0.12229820340871811, -0.11522217839956284, -0.09954387694597244, -0.10069705545902252, -0.03074091486632824, -0.1598854511976242, -0.0645739808678627, 0.15882711112499237, 0.10133485496044159, 0.15476159751415253, -0.012764254584908485, -0.14574190974235535, -0.12953631579875946, -0.050150614231824875, -0.047997184097766876, -0.022706717252731323, -0.05757354944944382, -0.16920283436775208, -0.04803147539496422, -0.026782609522342682, 0.001631092163734138, -0.0010255613597109914, -0.04563804715871811, 0.06194824352860451, 0.1543693095445633, -0.2970111072063446, -0.45202600955963135, -0.2559918463230133, -0.29802900552749634, -0.26281723380088806, -0.2075519859790802, -0.011450334452092648, 0.031713493168354034, 0.004128569737076759, 0.14244653284549713, 0.29631876945495605, 0.05652141198515892, 0.14990589022636414, -0.04940056800842285, -0.12062301486730576, -0.0792078971862793, -0.1221078634262085, -0.03182397782802582, 0.03440384566783905, 0.07795556634664536, -0.13023516535758972, 0.1316775679588318, 0.13947847485542297, 0.03922358527779579, 0.06724522262811661, 0.007460256107151508, -0.05132193863391876, 0.12801268696784973, -0.1884828358888626, -0.242591992020607, -0.12975506484508514, -0.3833276927471161, -0.1143157109618187, -0.02347249910235405, -0.1273995190858841, 0.16690318286418915, 0.06838209182024002, 0.11417678743600845, 0.10399243235588074, 0.13818912208080292, 0.12011663615703583, 0.009287499822676182, -0.269807368516922, -0.12800805270671844, 0.051983390003442764, 0.07684528082609177, 0.11302769184112549, 0.16122093796730042, 0.11574432253837585, 0.3250355124473572, 0.32725852727890015, 0.25246426463127136, 0.1470615118741989, 0.20269106328487396, -0.052408721297979355, -0.10661923140287399, -0.23999619483947754, -0.19506721198558807, -0.14830581843852997, -0.37796637415885925, -0.29149022698402405, -0.1486891210079193, -0.1916908174753189, -0.05983590707182884, -0.05162351205945015, 0.14894598722457886, -0.023528901860117912, -0.1104641780257225, 0.15690173208713531, -0.14845800399780273, -0.4303450882434845, -0.15520383417606354, -0.04411560669541359, -0.0074042086489498615, 0.14109587669372559, 0.1221267580986023, -0.0016228491440415382, 0.2801842987537384, 0.2725503444671631, 0.11619620025157928, 0.23601602017879486, 0.22547601163387299, -0.09285002946853638, -0.05207088217139244, 0.0929526761174202, 0.16934289038181305, -0.17660339176654816, -0.39178282022476196, -0.46176186203956604, -0.1923428773880005, -0.17667590081691742, -0.20004668831825256, -0.18811877071857452, -0.07196126133203506, -0.12815245985984802, -0.27516883611679077, 0.1390155851840973, -0.4979915916919708, -0.19723421335220337, 0.005289602093398571, 0.06771901994943619, -0.045845892280340195, 0.05905335769057274, 0.005252649076282978, 0.07961607724428177, 0.07486438006162643, 0.12174444645643234, 0.0201206523925066, 0.15926501154899597, 0.16420942544937134, 0.09282565116882324, -0.008449574932456017, 0.12171691656112671, 0.1831376999616623, 0.21322542428970337, -0.10881483554840088, -0.07419280707836151, -0.0255302581936121, -0.14033105969429016, -0.20000195503234863, -0.1416739821434021, -0.274831622838974, -0.34025445580482483, -0.12864522635936737, -0.13101185858249664, -0.43676745891571045, -0.11866113543510437, -0.1584252119064331, -0.03602592274546623, -0.014008505269885063, 0.03145955502986908, 0.13071700930595398, -0.0029976777732372284, 0.007971487008035183, 0.09516493231058121, 0.04416206106543541, 0.18339425325393677, 0.08766159415245056, 0.14794804155826569, 0.05635283514857292, 0.2780741751194, 0.191801980137825, 0.1704726666212082, -0.20896406471729279, -0.2508506178855896, -0.17355048656463623, -0.28135421872138977, -0.26915571093559265, -0.17380912601947784, -0.0389828123152256, -0.39073312282562256, -0.14269089698791504, -0.4330255091190338, -0.19725483655929565, -0.13633713126182556, -0.06466761231422424, 0.011700713075697422, 0.0633765235543251, 0.1518368273973465, -0.05739733576774597, -0.07240746170282364, -0.07748943567276001, -0.01184969674795866, -0.03908113017678261, 0.0356019027531147, 0.07168562710285187, 0.04915442317724228, 0.1708495020866394, 0.3042489290237427, 0.11739639937877655, -0.02494874596595764, -0.3550321161746979, -0.3540394604206085, -0.11144670099020004, -0.3338766396045685, -0.5351744294166565, -0.2781740427017212, -0.24569129943847656, -0.4629895091056824, -0.45023950934410095, -0.17810356616973877, -0.06831789761781693, 0.09741929918527603, 0.024237943813204765, -0.004446759819984436, 0.065351702272892, 0.028858989477157593, -0.05076739937067032, 0.00793841015547514, -0.17968639731407166, -0.2506023049354553, -0.0902443453669548, 0.07685703784227371, 0.07356760650873184, -0.015293325297534466, 0.28923946619033813, 0.2711867690086365, 0.08256480097770691, -0.03947525843977928, -0.25041109323501587, -0.24821054935455322, -0.025400888174772263, -0.32926374673843384, -0.6968090534210205, -0.34914854168891907, -0.4667619466781616, -0.29483747482299805, -0.30837419629096985, 0.0028549914713948965, 0.08314082026481628, -0.10515882819890976, -0.05136069282889366, 0.11433511972427368, 0.2323407679796219, 0.12832094728946686, -0.011545270681381226, 0.01915452815592289, -0.17834573984146118, -0.1907387524843216, -0.09882882237434387, 0.03574724122881889, -0.05205993354320526, 0.1488003432750702, 0.25375136733055115, 0.2342326045036316, 0.0482172816991806, 0.08759923279285431, -0.1461964249610901, -0.23025204241275787, -0.09110906720161438, -0.4355151653289795, -0.2602943480014801, -0.21712267398834229, -0.14326941967010498, -0.08236674219369888, 0.006502736825495958, 0.05897793918848038, 0.04799310117959976, 0.01774696819484234, -0.004658105317503214, 0.0618695430457592, -0.019246533513069153, 0.015452735126018524, 0.1686844676733017, 0.01649685949087143, -0.1823434978723526, -0.12259664386510849, -0.12767170369625092, 0.12587948143482208, 0.03198117017745972, 0.06787561625242233, 0.192940354347229, 0.052901625633239746, 0.03551337495446205, -0.13639143109321594, -0.41003575921058655, -0.18290258944034576, -0.29727354645729065, -0.313326895236969, -0.012972444295883179, -0.09760018438100815, 